{"learner":{"attributes":{"scikit_learn":"{\"use_label_encoder\": true, \"n_estimators\": 100, \"objective\": \"binary:logistic\", \"max_depth\": 5, \"learning_rate\": 0.1, \"verbosity\": null, \"booster\": null, \"tree_method\": null, \"gamma\": null, \"min_child_weight\": null, \"max_delta_step\": null, \"subsample\": null, \"colsample_bytree\": null, \"colsample_bylevel\": null, \"colsample_bynode\": null, \"reg_alpha\": null, \"reg_lambda\": null, \"scale_pos_weight\": null, \"base_score\": null, \"missing\": NaN, \"num_parallel_tree\": null, \"kwargs\": {}, \"random_state\": 42, \"n_jobs\": null, \"monotone_constraints\": null, \"interaction_constraints\": null, \"importance_type\": \"gain\", \"gpu_id\": null, \"validate_parameters\": null, \"classes_\": [0, 1], \"n_classes_\": 2, \"_le\": {\"classes_\": [0, 1]}, \"_estimator_type\": \"classifier\"}"},"feature_names":["A1_Score","A2_Score","A3_Score","A4_Score","A5_Score","A6_Score","A7_Score","A8_Score","A9_Score","A10_Score","age","gender","jaundice","austim","used_app_before"],"feature_types":["int","int","int","int","int","int","int","int","int","int","float","int","int","int","int"],"gradient_booster":{"model":{"gbtree_model_param":{"num_trees":"100","size_leaf_vector":"0"},"tree_info":[0,0,0,0,0,0,0,0,0,0,0,0,0,0,0,0,0,0,0,0,0,0,0,0,0,0,0,0,0,0,0,0,0,0,0,0,0,0,0,0,0,0,0,0,0,0,0,0,0,0,0,0,0,0,0,0,0,0,0,0,0,0,0,0,0,0,0,0,0,0,0,0,0,0,0,0,0,0,0,0,0,0,0,0,0,0,0,0,0,0,0,0,0,0,0,0,0,0,0,0],"trees":[{"base_weights":[-0E0,-1.6914285E0,8.604651E-1,-1.8904109E0,-6.451613E-1,-4E-1,1.1882998E0,-1.6666666E0,-0E0,-9.7959185E-1,7.4509805E-1,5E-1,1.3378077E0,-8.8E-1,1.0476191E0,-1.5471698E0,-2.857143E-1,-1.2E0,1.1111112E0,-3.5897437E-1,9.5652175E-1,9.019608E-1,1.5436242E0,1.8181819E-1,-1.3333334E0,1.4285715E0,1.8181819E-1,-1.8E0,-5.882353E-1,4.7058824E-1,-1.5789474E0,1.3170732E0,-5E-1,-1.0769231E0,8.235294E-1,1.1875E0,-1.1111112E0,-1.6190476E0,1.2647059E0,2.2222222E-1,1.5631399E0],"categories":[],"categories_nodes":[],"categories_segments":[],"categories_sizes":[],"default_left":[true,true,true,false,true,true,true,false,true,true,true,true,true,true,true,true,true,false,true,true,true,true,true,false,false,false,false,false,false,false,false,false,false,false,false,false,false,false,false,false,false],"id":0,"left_children":[1,3,5,-1,7,9,11,-1,13,15,17,19,21,23,25,27,29,-1,31,33,35,37,39,-1,-1,-1,-1,-1,-1,-1,-1,-1,-1,-1,-1,-1,-1,-1,-1,-1,-1],"loss_changes":[3.7768027E2,1.6996872E1,7.154989E1,0E0,1.0215054E1,2.4788635E1,1.3403519E1,0E0,1.0601905E1,9.206776E0,1.0410458E1,1.0539019E1,8.632187E0,3.2509089E0,1.4718614E0,2.1536083E0,1.2724458E1,0E0,4.3915977E0,9.164404E0,9.55767E0,3.702661E1,1.5738525E0,0E0,0E0,0E0,0E0,0E0,0E0,0E0,0E0,0E0,0E0,0E0,0E0,0E0,0E0,0E0,0E0,0E0,0E0],"parents":[2147483647,0,0,1,1,2,2,4,4,5,5,6,6,8,8,9,9,10,10,11,11,12,12,13,13,14,14,15,15,16,16,18,18,19,19,20,20,21,21,22,22],"right_children":[2,4,6,-1,8,10,12,-1,14,16,18,20,22,24,26,28,30,-1,32,34,36,38,40,-1,-1,-1,-1,-1,-1,-1,-1,-1,-1,-1,-1,-1,-1,-1,-1,-1,-1],"split_conditions":[5E-1,5E-1,5E-1,-1.890411E-1,1.9347488E1,5E-1,5E-1,-1.6666667E-1,5E-1,5E-1,5E-1,5E-1,2.3335629E1,5E-1,5E-1,5E-1,2.3885944E1,-1.20000005E-1,3.0299461E1,3.1838947E1,5.433226E1,5E-1,5E-1,1.818182E-2,-1.3333334E-1,1.4285715E-1,1.818182E-2,-1.7999999E-1,-5.8823533E-2,4.7058824E-2,-1.5789475E-1,1.3170733E-1,-5E-2,-1.07692316E-1,8.235294E-2,1.1875E-1,-1.1111112E-1,-1.6190477E-1,1.264706E-1,2.2222223E-2,1.56314E-1],"split_indices":[8,3,3,0,10,5,6,0,6,2,9,4,10,9,0,4,10,0,10,10,10,7,9,0,0,0,0,0,0,0,0,0,0,0,0,0,0,0,0,0,0],"split_type":[0,0,0,0,0,0,0,0,0,0,0,0,0,0,0,0,0,0,0,0,0,0,0,0,0,0,0,0,0,0,0,0,0,0,0,0,0,0,0,0,0],"sum_hessian":[2.575E2,8.65E1,1.71E2,7.2E1,1.45E1,3.525E1,1.3575E2,5E0,9.5E0,2.35E1,1.175E1,2.5E1,1.1075E2,5.25E0,4.25E0,1.225E1,1.125E1,1.5E0,1.025E1,8.75E0,1.625E1,3.725E1,7.35E1,1.75E0,3.5E0,2.5E0,1.75E0,9E0,3.25E0,7.5E0,3.75E0,9.25E0,1E0,5.5E0,3.25E0,1.5E1,1.25E0,4.25E0,3.3E1,1.25E0,7.225E1],"tree_param":{"num_deleted":"0","num_feature":"15","num_nodes":"41","size_leaf_vector":"0"}},{"base_weights":[-2.2970357E-3,-1.5386647E0,7.7676404E-1,-1.7195754E0,-5.909716E-1,-3.7234163E-1,1.0759226E0,-1.5369519E0,4.3742987E-3,-8.99906E-1,6.7012334E-1,4.5073065E-1,1.2120463E0,-8.125697E-1,9.760371E-1,-1.4188758E0,-2.6688313E-1,-1.1305224E0,1.0110692E0,-3.26436E-1,8.6426145E-1,8.1433666E-1,1.4002305E0,1.702572E-1,-1.2340361E0,1.33154E0,1.702572E-1,-1.6504028E0,-5.4362494E-1,4.2928293E-1,-1.4617146E0,1.1862512E0,-2.1478052E-1,-9.883066E-1,7.615756E-1,1.097823E0,-1.1793102E0,-1.4961702E0,1.1465565E0,2.0989144E-1,1.4177809E0],"categories":[],"categories_nodes":[],"categories_segments":[],"categories_sizes":[],"default_left":[true,true,true,false,true,true,true,false,true,true,true,true,true,true,true,true,true,false,true,true,true,true,true,false,false,false,false,false,false,false,false,false,false,false,false,false,false,false,false,false,false],"id":1,"left_children":[1,3,5,-1,7,9,11,-1,13,15,17,19,21,23,25,27,29,-1,31,33,35,37,39,-1,-1,-1,-1,-1,-1,-1,-1,-1,-1,-1,-1,-1,-1,-1,-1,-1,-1],"loss_changes":[3.0877078E2,1.3865021E1,5.924427E1,0E0,8.700577E0,2.0457554E1,1.1033981E1,0E0,9.105305E0,7.6363087E0,8.942305E0,8.61299E0,7.1785736E0,2.7925477E0,1.2735124E0,1.7725716E0,1.079424E1,0E0,2.6619606E0,7.758443E0,9.501076E0,3.0953693E1,1.2496033E0,0E0,0E0,0E0,0E0,0E0,0E0,0E0,0E0,0E0,0E0,0E0,0E0,0E0,0E0,0E0,0E0,0E0,0E0],"parents":[2147483647,0,0,1,1,2,2,4,4,5,5,6,6,8,8,9,9,10,10,11,11,12,12,13,13,14,14,15,15,16,16,18,18,19,19,20,20,21,21,22,22],"right_children":[2,4,6,-1,8,10,12,-1,14,16,18,20,22,24,26,28,30,-1,32,34,36,38,40,-1,-1,-1,-1,-1,-1,-1,-1,-1,-1,-1,-1,-1,-1,-1,-1,-1,-1],"split_conditions":[5E-1,5E-1,5E-1,-1.7195754E-1,1.9347488E1,5E-1,5E-1,-1.536952E-1,5E-1,5E-1,5E-1,5E-1,2.3335629E1,5E-1,5E-1,5E-1,2.3885944E1,-1.1305224E-1,3.004492E1,3.1838947E1,5E-1,5E-1,5E-1,1.702572E-2,-1.2340361E-1,1.33154E-1,1.702572E-2,-1.6504028E-1,-5.4362494E-2,4.2928293E-2,-1.4617147E-1,1.1862512E-1,-2.1478053E-2,-9.883066E-2,7.615756E-2,1.097823E-1,-1.1793102E-1,-1.4961702E-1,1.1465565E-1,2.0989144E-2,1.417781E-1],"split_indices":[8,3,3,0,10,5,6,0,6,2,9,4,10,9,0,4,10,0,10,10,12,7,9,0,0,0,0,0,0,0,0,0,0,0,0,0,0,0,0,0,0],"split_type":[0,0,0,0,0,0,0,0,0,0,0,0,0,0,0,0,0,0,0,0,0,0,0,0,0,0,0,0,0,0,0,0,0,0,0,0,0,0,0,0,0],"sum_hessian":[2.5597166E2,8.579748E1,1.7017418E2,7.136055E1,1.4436927E1,3.5101246E1,1.3507294E2,4.965438E0,9.47149E0,2.3397255E1,1.1703989E1,2.4921974E1,1.1015096E2,5.234346E0,4.2371435E0,1.2174682E1,1.1222573E1,1.4946129E0,1.0209376E1,8.7285795E0,1.6193394E1,3.7090664E1,7.3060295E1,1.7498554E0,3.4844906E0,2.487288E0,1.7498554E0,8.927492E0,3.2471902E0,7.495849E0,3.7267241E0,8.961082E0,1.2482942E0,5.484084E0,3.2444959E0,1.494779E1,1.2456037E0,4.2222695E0,3.2868393E1,1.2498457E0,7.181045E1],"tree_param":{"num_deleted":"0","num_feature":"15","num_nodes":"41","size_leaf_vector":"0"}},{"base_weights":[-4.396722E-3,-1.4194359E0,7.0690084E-1,-1.5881183E0,-5.453611E-1,-3.4859332E-1,9.8225576E-1,-1.2257117E0,1.5981211E-1,-8.331324E-1,6.077595E-1,5.0958854E-1,1.1540034E0,-1.441322E0,-5.9689397E-1,-1.1407506E0,7.313085E-1,-1.3144532E0,-2.5045562E-1,-1.0694325E0,9.274598E-1,-1.2588964E0,9.474512E-1,1.2625568E0,8.0267924E-1,-1.7787817E-1,-7.3501027E-1,-2.132818E-1,1.1977844E0,-1.5327652E0,-5.0300294E-1,3.919405E-1,-1.3652619E0,1.0910952E0,-2.0288646E-1,-4.8960585E-2,-1.6543567E0,-5.745794E-1,1.2101316E0,6.618243E-1,1.3176012E0,1.3911734E0,5.58072E-1],"categories":[],"categories_nodes":[],"categories_segments":[],"categories_sizes":[],"default_left":[true,true,true,false,true,true,true,true,true,true,true,true,true,false,true,false,true,true,true,false,true,true,true,true,true,false,false,false,false,false,false,false,false,false,false,false,false,false,false,false,false,false,false],"id":2,"left_children":[1,3,5,-1,7,9,11,13,15,17,19,21,23,-1,25,-1,27,29,31,-1,33,35,37,39,41,-1,-1,-1,-1,-1,-1,-1,-1,-1,-1,-1,-1,-1,-1,-1,-1,-1,-1],"loss_changes":[2.5567406E2,1.1662415E1,4.947419E1,0E0,7.521285E0,1.7056185E1,1.0317169E1,2.0892906E-1,7.0644865E0,6.4371586E0,7.7416563E0,3.0303246E1,2.7141724E0,0E0,8.457601E-2,0E0,3.089895E0,1.5278778E0,9.235917E0,0E0,2.2760344E0,3.6942368E0,1.2970726E1,1.53936E0,2.9400063E0,0E0,0E0,0E0,0E0,0E0,0E0,0E0,0E0,0E0,0E0,0E0,0E0,0E0,0E0,0E0,0E0,0E0,0E0],"parents":[2147483647,0,0,1,1,2,2,4,4,5,5,6,6,7,7,8,8,9,9,10,10,11,11,12,12,14,14,16,16,17,17,18,18,20,20,21,21,22,22,23,23,24,24],"right_children":[2,4,6,-1,8,10,12,14,16,18,20,22,24,-1,26,-1,28,30,32,-1,34,36,38,40,42,-1,-1,-1,-1,-1,-1,-1,-1,-1,-1,-1,-1,-1,-1,-1,-1,-1,-1],"split_conditions":[5E-1,5E-1,5E-1,-1.5881184E-1,5E-1,5E-1,5E-1,3.0823366E1,1.9347488E1,5E-1,5E-1,2.334983E1,5E-1,-1.441322E-1,4.23961E1,-1.14075065E-1,5E-1,5E-1,2.3885944E1,-1.0694325E-1,3.004492E1,5E-1,5E-1,5E-1,5E-1,-1.7787818E-2,-7.350103E-2,-2.132818E-2,1.1977845E-1,-1.5327652E-1,-5.0300296E-2,3.919405E-2,-1.365262E-1,1.0910952E-1,-2.0288646E-2,-4.8960587E-3,-1.6543567E-1,-5.7457943E-2,1.21013165E-1,6.618243E-2,1.3176012E-1,1.3911735E-1,5.58072E-2],"split_indices":[8,3,3,0,7,5,5,10,10,2,9,10,12,0,10,0,6,4,10,0,10,0,4,0,0,0,0,0,0,0,0,0,0,0,0,0,0,0,0,0,0,0,0],"split_type":[0,0,0,0,0,0,0,0,0,0,0,0,0,0,0,0,0,0,0,0,0,0,0,0,0,0,0,0,0,0,0,0,0,0,0,0,0,0,0,0,0,0,0],"sum_hessian":[2.5202249E2,8.397299E1,1.680495E2,6.970426E1,1.4268726E1,3.471469E1,1.3333481E2,6.8864822E0,7.382244E0,2.312645E1,1.1588243E1,3.6593304E1,9.674151E1,4.165942E0,2.7205398E0,1.9495494E0,5.432695E0,1.1976972E1,1.1149478E1,1.4798156E0,1.0108427E1,6.8900323E0,2.970327E1,7.192433E1,2.4817173E1,1.241618E0,1.4789219E0,1.9753964E0,3.4572985E0,8.737358E0,3.2396133E0,7.4848375E0,3.6646407E0,8.86046E0,1.2479659E0,1.9740646E0,4.915968E0,4.197078E0,2.5506193E1,7.1303253E0,6.479401E1,5.910319E0,1.8906855E1],"tree_param":{"num_deleted":"0","num_feature":"15","num_nodes":"43","size_leaf_vector":"0"}},{"base_weights":[-6.165372E-3,-1.3243078E0,6.469657E-1,-1.4835149E0,-5.1436514E-1,-3.2835558E-1,9.014542E-1,-1.351722E0,2.3454353E-3,-7.7596074E-1,5.5343014E-1,3.3695838E-1,1.026618E0,-7.1213055E-1,8.565212E-1,-1.2271951E0,-2.3595615E-1,-1.015215E0,8.5458124E-1,5.170456E-1,-1.3429435E0,6.699552E-1,1.1976908E0,1.9443932E-1,-1.1151261E0,1.1931282E0,1.2526244E-1,-1.4376858E0,-4.6586394E-1,3.5807753E-1,-1.2842872E0,1.0086416E0,-1.9167446E-1,-2.1833497E-1,1.201807E0,-1.399864E0,9.707909E-1,1.368627E0,9.587537E-1],"categories":[],"categories_nodes":[],"categories_segments":[],"categories_sizes":[],"default_left":[true,true,true,false,true,true,true,false,true,true,true,true,true,true,true,true,true,false,true,true,false,true,true,false,false,false,false,false,false,false,false,false,false,false,false,false,false,false,false],"id":3,"left_children":[1,3,5,-1,7,9,11,-1,13,15,17,19,21,23,25,27,29,-1,31,33,-1,35,37,-1,-1,-1,-1,-1,-1,-1,-1,-1,-1,-1,-1,-1,-1,-1,-1],"loss_changes":[2.1415813E2,9.864502E0,4.158361E1,0E0,6.523441E0,1.4304773E1,8.993736E0,0E0,6.906574E0,5.4937973E0,6.734932E0,8.40246E0,5.7695007E0,2.468866E0,1.1190095E0,1.3641663E0,7.9592924E0,0E0,1.9603939E0,1.221389E1,0E0,2.4513084E1,1.6090851E0,0E0,0E0,0E0,0E0,0E0,0E0,0E0,0E0,0E0,0E0,0E0,0E0,0E0,0E0,0E0,0E0],"parents":[2147483647,0,0,1,1,2,2,4,4,5,5,6,6,8,8,9,9,10,10,11,11,12,12,13,13,14,14,15,15,16,16,18,18,19,19,21,21,22,22],"right_children":[2,4,6,-1,8,10,12,-1,14,16,18,20,22,24,26,28,30,-1,32,34,-1,36,38,-1,-1,-1,-1,-1,-1,-1,-1,-1,-1,-1,-1,-1,-1,-1,-1],"split_conditions":[5E-1,5E-1,5E-1,-1.4835149E-1,1.9347488E1,5E-1,5E-1,-1.351722E-1,5E-1,5E-1,5E-1,5.296776E1,2.3335629E1,5E-1,5E-1,5E-1,2.3885944E1,-1.0152151E-1,3.004492E1,3.0347313E1,-1.3429436E-1,5E-1,5E-1,1.9443933E-2,-1.1151262E-1,1.1931282E-1,1.2526244E-2,-1.437686E-1,-4.6586394E-2,3.5807755E-2,-1.2842873E-1,1.00864165E-1,-1.9167446E-2,-2.1833498E-2,1.201807E-1,-1.399864E-1,9.707909E-2,1.368627E-1,9.5875375E-2],"split_indices":[8,3,3,0,10,5,6,0,6,2,9,10,10,9,0,4,10,0,10,10,0,7,11,0,0,0,0,0,0,0,0,0,0,0,0,0,0,0,0],"split_type":[0,0,0,0,0,0,0,0,0,0,0,0,0,0,0,0,0,0,0,0,0,0,0,0,0,0,0,0,0,0,0,0,0,0,0,0,0,0,0],"sum_hessian":[2.4675984E2,8.141708E1,1.6534276E2,6.7347275E1,1.4069806E1,3.415485E1,1.3118791E2,4.7523527E0,9.317453E0,2.2734535E1,1.1420316E1,2.447888E1,1.0670903E2,5.1641726E0,4.153281E0,1.1691997E1,1.1042539E1,1.4574728E0,9.962843E0,2.273399E1,1.7448905E0,3.618487E1,7.052416E1,1.7484388E0,3.4157338E0,2.4115894E0,1.7416918E0,8.463616E0,3.22838E0,7.468797E0,3.5737412E0,8.71545E0,1.2473928E0,1.129027E1,1.144372E1,4.1282578E0,3.2056614E1,3.8356125E1,3.2168037E1],"tree_param":{"num_deleted":"0","num_feature":"15","num_nodes":"39","size_leaf_vector":"0"}},{"base_weights":[-7.7053765E-3,-1.2443978E0,5.9455234E-1,-1.3979992E0,-4.791938E-1,-4.5684967E-2,9.4484895E-1,-1.1005867E0,1.6303082E-1,-8.520606E-1,4.3693647E-1,2.4729267E-2,9.909488E-1,-1.2963839E0,-5.371537E-1,-1.0156202E0,6.7021793E-1,-4.5586967E-1,-1.2275547E0,-5.775017E-1,1.004983E0,-9.6668375E-1,5.405515E-1,1.0962298E0,6.440357E-1,-1.5100926E-1,-6.698225E-1,-1.492937E-1,1.0709913E0,-1.0836953E0,5.075422E-1,-6.9023126E-1,-1.4660866E0,3.9815795E-1,-1.5268381E0,1.1434146E0,-9.8372355E-2,9.535627E-1,5.9405018E-2,5.0405824E-1,1.148414E0,1.2225646E0,4.2128143E-1],"categories":[],"categories_nodes":[],"categories_segments":[],"categories_sizes":[],"default_left":[true,true,true,false,true,true,true,true,true,true,true,true,true,false,true,false,true,true,true,true,true,false,true,true,true,false,false,false,false,false,false,false,false,false,false,false,false,false,false,false,false,false,false],"id":4,"left_children":[1,3,5,-1,7,9,11,13,15,17,19,21,23,-1,25,-1,27,29,31,33,35,-1,37,39,41,-1,-1,-1,-1,-1,-1,-1,-1,-1,-1,-1,-1,-1,-1,-1,-1,-1,-1],"loss_changes":[1.8036296E2,8.651405E0,3.6568573E1,0E0,6.077535E0,2.3158007E1,4.442581E0,1.4654255E-1,5.5460935E0,2.7520485E0,2.206766E1,3.6165824E0,2.955902E0,0E0,8.726823E-2,0E0,2.2266703E0,8.063852E0,3.7716675E-1,1.359366E1,3.8191967E0,0E0,8.6163616E-1,1.7540665E0,2.8056154E0,0E0,0E0,0E0,0E0,0E0,0E0,0E0,0E0,0E0,0E0,0E0,0E0,0E0,0E0,0E0,0E0,0E0,0E0],"parents":[2147483647,0,0,1,1,2,2,4,4,5,5,6,6,7,7,8,8,9,9,10,10,11,11,12,12,14,14,16,16,17,17,18,18,19,19,20,20,22,22,23,23,24,24],"right_children":[2,4,6,-1,8,10,12,14,16,18,20,22,24,-1,26,-1,28,30,32,34,36,-1,38,40,42,-1,-1,-1,-1,-1,-1,-1,-1,-1,-1,-1,-1,-1,-1,-1,-1,-1,-1],"split_conditions":[5E-1,5E-1,5E-1,-1.3979992E-1,5E-1,5E-1,5E-1,3.0823366E1,1.9347488E1,2.6141136E1,3.093783E1,5E-1,5E-1,-1.2963839E-1,4.23961E1,-1.0156202E-1,5E-1,2.1953173E1,5E-1,5E-1,6.895681E1,-9.666838E-2,1.2312727E1,1.263778E1,5E-1,-1.5100926E-2,-6.6982254E-2,-1.4929371E-2,1.0709913E-1,-1.0836953E-1,5.075422E-2,-6.9023125E-2,-1.4660867E-1,3.9815795E-2,-1.5268381E-1,1.1434146E-1,-9.837235E-3,9.535627E-2,5.940502E-3,5.0405826E-2,1.148414E-1,1.2225646E-1,4.2128142E-2],"split_indices":[8,3,5,0,7,4,9,10,10,10,10,3,12,0,10,0,6,10,11,11,10,0,10,10,0,0,0,0,0,0,0,0,0,0,0,0,0,0,0,0,0,0,0],"split_type":[0,0,0,0,0,0,0,0,0,0,0,0,0,0,0,0,0,0,0,0,0,0,0,0,0,0,0,0,0,0,0,0,0,0,0,0,0,0,0,0,0,0,0],"sum_hessian":[2.4016714E2,7.8305756E1,1.6186139E2,6.452627E1,1.3779489E1,5.7548874E1,1.04312515E2,6.6405897E0,7.138899E0,2.1260624E1,3.628825E1,5.050222E0,9.92623E1,3.9626658E0,2.6779237E0,1.8461584E0,5.2927403E0,1.142254E1,9.838084E0,1.3020004E1,2.3268248E1,1.4292095E0,3.6210122E0,7.4494736E1,2.4767565E1,1.2315702E0,1.4463536E0,1.9443564E0,3.348384E0,6.840164E0,4.582375E0,4.221741E0,5.6163435E0,6.7073083E0,6.312696E0,2.0642094E1,2.6261525E0,1.4201308E0,2.2008815E0,6.8963327E0,6.75984E1,5.6375465E0,1.9130018E1],"tree_param":{"num_deleted":"0","num_feature":"15","num_nodes":"43","size_leaf_vector":"0"}},{"base_weights":[-8.819013E-3,-1.1776764E0,5.474163E-1,-1.326479E0,-4.5557815E-1,-3.1126183E-1,7.7301145E-1,-1.0398502E0,1.4818521E-1,-8.04355E-1,2.8706685E-1,2.540298E-1,8.909867E-1,-1.2622321E0,-5.34294E-1,-9.696206E-1,6.264499E-1,-6.172657E-2,-1.5131358E0,-1.257191E0,6.215356E-1,4.2157304E-1,-1.2488511E0,5.631531E-1,1.0513763E0,-8.4855527E-1,-6.5786414E-2,1.0504252E0,-1.1917345E-1,3.7016085E-1,-6.654297E-1,8.257406E-1,-6.59965E-1,-2.3917611E-1,1.0596559E0,-1.3341541E0,8.441409E-1,1.0875914E0,2.8267318E-1],"categories":[],"categories_nodes":[],"categories_segments":[],"categories_sizes":[],"default_left":[true,true,true,false,true,true,true,true,true,true,true,true,true,false,true,false,true,true,false,false,true,true,false,true,true,false,false,false,false,false,false,false,false,false,false,false,false,false,false],"id":5,"left_children":[1,3,5,-1,7,9,11,13,15,17,19,21,23,-1,25,-1,27,29,-1,-1,31,33,-1,35,37,-1,-1,-1,-1,-1,-1,-1,-1,-1,-1,-1,-1,-1,-1],"loss_changes":[1.5307417E2,7.552498E0,3.114502E1,0E0,5.266878E0,1.023434E1,7.5268555E0,1.6771889E-1,4.8859696E0,9.828921E0,9.074148E0,6.784384E0,4.812065E0,0E0,5.3639114E-1,0E0,2.0891194E0,2.9183278E0,0E0,0E0,4.17362E0,9.995983E0,0E0,2.0274612E1,1.5816956E0,0E0,0E0,0E0,0E0,0E0,0E0,0E0,0E0,0E0,0E0,0E0,0E0,0E0,0E0],"parents":[2147483647,0,0,1,1,2,2,4,4,5,5,6,6,7,7,8,8,9,9,10,10,11,11,12,12,14,14,16,16,17,17,20,20,21,21,23,23,24,24],"right_children":[2,4,6,-1,8,10,12,14,16,18,20,22,24,-1,26,-1,28,30,-1,-1,32,34,-1,36,38,-1,-1,-1,-1,-1,-1,-1,-1,-1,-1,-1,-1,-1,-1],"split_conditions":[5E-1,5E-1,5E-1,-1.326479E-1,5E-1,5E-1,5E-1,5E-1,1.9347488E1,5E-1,5E-1,5.296776E1,2.3335629E1,-1.262232E-1,2.5856611E1,-9.696206E-2,5E-1,2.3639874E1,-1.5131359E-1,-1.257191E-1,3.1626436E1,3.0347313E1,-1.24885105E-1,5E-1,5E-1,-8.485553E-2,-6.5786415E-3,1.0504252E-1,-1.1917345E-2,3.7016086E-2,-6.6542976E-2,8.257406E-2,-6.59965E-2,-2.3917612E-2,1.0596559E-1,-1.3341542E-1,8.441409E-2,1.0875914E-1,2.8267318E-2],"split_indices":[8,3,3,0,7,4,6,1,10,0,0,10,10,0,10,0,11,10,0,0,10,10,0,7,14,0,0,0,0,0,0,0,0,0,0,0,0,0,0],"split_type":[0,0,0,0,0,0,0,0,0,0,0,0,0,0,0,0,0,0,0,0,0,0,0,0,0,0,0,0,0,0,0,0,0,0,0,0,0,0,0],"sum_hessian":[2.3344928E2,7.491267E1,1.5853662E2,6.141908E1,1.3493588E1,3.2906296E1,1.25630325E2,6.490419E0,7.00317E0,1.7850801E1,1.5055495E1,2.385291E1,1.0177741E2,3.468146E0,3.0222728E0,1.7906559E0,5.212514E0,9.248123E0,8.602677E0,2.18918E0,1.2866316E1,2.2107792E1,1.745117E0,3.4917606E1,6.685981E1,1.3233922E0,1.6988807E0,3.0623927E0,2.1501215E0,5.61676E0,3.6313634E0,1.1404649E1,1.4616665E0,1.11681185E1,1.0939673E1,4.0206923E0,3.0896915E1,6.345546E1,3.4043455E0],"tree_param":{"num_deleted":"0","num_feature":"15","num_nodes":"39","size_leaf_vector":"0"}},{"base_weights":[-1.1243252E-2,-1.1197604E0,5.043014E-1,-1.2654657E0,-4.3436602E-1,-7.3205486E-2,8.23348E-1,-9.868076E-1,1.3508755E-1,-7.726254E-1,3.4861845E-1,4.2981506E-4,8.6545783E-1,-1.1736059E0,-4.7493264E-1,-9.2800176E-1,5.856848E-1,-4.0568075E-1,-1.1316714E0,-5.655954E-1,8.800846E-1,4.4959444E-1,-9.705594E-1,9.6967846E-1,5.3030944E-1,-1.0097368E-1,-6.2086666E-1,-1.2609227E-1,9.976727E-1,-9.808621E-1,4.6342462E-1,-6.26065E-1,-1.3586799E0,3.27298E-1,-1.4236023E0,1.0093486E0,-1.06825784E-1,-4.4448406E-1,1.0675696E0,4.3335813E-1,1.0182912E0,1.1066287E0,3.1753868E-1],"categories":[],"categories_nodes":[],"categories_segments":[],"categories_sizes":[],"default_left":[true,true,true,false,true,true,true,true,true,true,true,true,true,false,true,false,true,true,true,true,true,true,false,true,true,false,false,false,false,false,false,false,false,false,false,false,false,false,false,false,false,false,false],"id":6,"left_children":[1,3,5,-1,7,9,11,13,15,17,19,21,23,-1,25,-1,27,29,31,33,35,37,-1,39,41,-1,-1,-1,-1,-1,-1,-1,-1,-1,-1,-1,-1,-1,-1,-1,-1,-1,-1],"loss_changes":[1.3029208E2,6.6775284E0,2.8735207E1,0E0,4.603676E0,1.6879772E1,3.4763184E0,1.4379978E-1,4.316762E0,2.3724375E0,1.7896257E1,3.002806E0,2.81958E0,0E0,1.3597673E-1,0E0,1.927834E0,6.5471277E0,3.3203888E-1,1.1017465E1,3.046547E0,3.0751123E0,0E0,1.4254074E0,2.6954207E0,0E0,0E0,0E0,0E0,0E0,0E0,0E0,0E0,0E0,0E0,0E0,0E0,0E0,0E0,0E0,0E0,0E0,0E0],"parents":[2147483647,0,0,1,1,2,2,4,4,5,5,6,6,7,7,8,8,9,9,10,10,11,11,12,12,14,14,16,16,17,17,18,18,19,19,20,20,21,21,23,23,24,24],"right_children":[2,4,6,-1,8,10,12,14,16,18,20,22,24,-1,26,-1,28,30,32,34,36,38,-1,40,42,-1,-1,-1,-1,-1,-1,-1,-1,-1,-1,-1,-1,-1,-1,-1,-1,-1,-1],"split_conditions":[5E-1,5E-1,5E-1,-1.2654658E-1,5E-1,5E-1,5E-1,3.0823366E1,1.9347488E1,2.6141136E1,3.093783E1,5E-1,5E-1,-1.1736059E-1,4.23961E1,-9.280018E-2,5E-1,2.1953173E1,5E-1,5E-1,6.895681E1,5E-1,-9.705594E-2,1.263778E1,5E-1,-1.0097369E-2,-6.2086668E-2,-1.2609228E-2,9.976727E-2,-9.808621E-2,4.6342462E-2,-6.2606506E-2,-1.35868E-1,3.27298E-2,-1.4236024E-1,1.0093486E-1,-1.0682578E-2,-4.4448406E-2,1.0675696E-1,4.3335814E-2,1.0182913E-1,1.1066287E-1,3.1753868E-2],"split_indices":[8,3,5,0,7,4,9,10,10,10,10,2,12,0,10,0,4,10,11,11,10,6,0,10,0,0,0,0,0,0,0,0,0,0,0,0,0,0,0,0,0,0,0],"split_type":[0,0,0,0,0,0,0,0,0,0,0,0,0,0,0,0,0,0,0,0,0,0,0,0,0,0,0,0,0,0,0,0,0,0,0,0,0,0,0,0,0,0,0],"sum_hessian":[2.2599847E2,7.136926E1,1.5462921E2,5.815911E1,1.3210153E1,5.5300392E1,9.932882E1,6.333225E0,6.876928E0,2.049173E1,3.4808662E1,4.884539E0,9.444428E1,3.6928399E0,2.6403852E0,1.7317456E0,5.145182E0,1.1187747E1,9.303984E0,1.277288E1,2.2035782E1,3.7068024E0,1.1777368E0,7.059742E1,2.3846859E1,1.2160767E0,1.4243083E0,2.1407044E0,3.0044777E0,6.6548934E0,4.5328536E0,4.047361E0,5.256623E0,6.5622973E0,6.2105823E0,1.9463717E1,2.5720656E0,1.629706E0,2.0770965E0,6.6912103E0,6.390621E1,5.2973137E0,1.8549545E1],"tree_param":{"num_deleted":"0","num_feature":"15","num_nodes":"43","size_leaf_vector":"0"}},{"base_weights":[-1.2400011E-2,-1.0687329E0,4.6585003E-1,-1.2124805E0,-4.143225E-1,-7.201307E-2,7.6498777E-1,-1.308387E0,-9.5931214E-1,-1.1245426E0,-4.9680243E-3,-8.626334E-1,2.5929087E-1,-5.2153887E-3,8.0479544E-1,-1.211455E0,-6.059356E-1,-5.7633495E-1,6.967E-1,-1.2095145E0,-4.62709E-1,-6.950801E-1,5.598836E-1,4.249508E-1,-9.268848E-1,9.0414387E-1,4.9050412E-1,1.1501496E0,-9.6432817E-1,1.0956966E-1,-1.1439648E0,1.0319325E0,3.573704E-2,-9.245713E-1,7.080285E-2,3.800586E-1,-1.5202515E0,-2.9996338E-1,7.9908687E-1,-4.1813356E-1,1.0176804E0,3.9920703E-1,9.5109284E-1,1.0495646E0,2.8969952E-1],"categories":[],"categories_nodes":[],"categories_segments":[],"categories_sizes":[],"default_left":[true,true,true,true,true,true,true,false,true,false,true,true,true,true,true,false,true,true,true,false,true,true,true,true,false,true,true,false,false,false,false,false,false,false,false,false,false,false,false,false,false,false,false,false,false],"id":7,"left_children":[1,3,5,7,9,11,13,-1,15,-1,17,19,21,23,25,-1,27,29,31,-1,33,35,37,39,-1,41,43,-1,-1,-1,-1,-1,-1,-1,-1,-1,-1,-1,-1,-1,-1,-1,-1,-1,-1],"loss_changes":[1.1144513E2,5.9645844E0,2.4489975E1,1.0081482E-1,4.0356455E0,1.468005E1,2.9989967E0,0E0,9.670143E-1,0E0,4.3393736E0,1.7333355E0,1.1767192E1,2.6909935E0,2.4567566E0,0E0,7.371666E0,2.4462306E0,1.0402434E0,0E0,2.3563328E0,9.401638E0,6.5572414E0,2.7421722E0,0E0,1.265274E0,2.4457736E0,0E0,0E0,0E0,0E0,0E0,0E0,0E0,0E0,0E0,0E0,0E0,0E0,0E0,0E0,0E0,0E0,0E0,0E0],"parents":[2147483647,0,0,1,1,2,2,3,3,4,4,5,5,6,6,8,8,10,10,11,11,12,12,13,13,14,14,16,16,17,17,18,18,20,20,21,21,22,22,23,23,25,25,26,26],"right_children":[2,4,6,8,10,12,14,-1,16,-1,18,20,22,24,26,-1,28,30,32,-1,34,36,38,40,-1,42,44,-1,-1,-1,-1,-1,-1,-1,-1,-1,-1,-1,-1,-1,-1,-1,-1,-1,-1],"split_conditions":[5E-1,5E-1,5E-1,5E-1,1.9347488E1,5E-1,5E-1,-1.308387E-1,2.4228947E1,-1.1245426E-1,5E-1,5E-1,2.2234234E1,5E-1,5E-1,-1.211455E-1,2.5624E1,3.193688E1,5E-1,-1.2095145E-1,3.1169703E1,5E-1,5E-1,5E-1,-9.268848E-2,1.263778E1,5E-1,1.1501496E-1,-9.643282E-2,1.0956966E-2,-1.14396475E-1,1.03193246E-1,3.5737043E-3,-9.245713E-2,7.0802853E-3,3.800586E-2,-1.5202515E-1,-2.999634E-2,7.990869E-2,-4.1813355E-2,1.0176804E-1,3.9920703E-2,9.5109284E-2,1.0495646E-1,2.8969953E-2],"split_indices":[8,3,5,0,10,2,9,0,10,0,6,0,10,2,12,0,10,10,0,0,10,1,4,6,0,10,0,0,0,0,0,0,0,0,0,0,0,0,0,0,0,0,0,0,0],"split_type":[0,0,0,0,0,0,0,0,0,0,0,0,0,0,0,0,0,0,0,0,0,0,0,0,0,0,0,0,0,0,0,0,0,0,0,0,0,0,0,0,0,0,0,0,0],"sum_hessian":[2.186144E2,6.774601E1,1.508684E2,5.48458E1,1.290021E1,5.4190575E1,9.667782E1,3.6754303E1,1.8091496E1,4.0779514E0,8.822259E0,1.5528874E1,3.8661697E1,4.7938995E0,9.188392E1,9.140966E0,8.950529E0,4.9610815E0,3.8611774E0,7.2318497E0,8.297025E0,8.946027E0,2.9715672E1,3.6358778E0,1.1580218E0,6.838914E1,2.3494785E1,1.1426208E0,7.8079085E0,2.6119092E0,2.3491724E0,2.1894557E0,1.6717217E0,4.054256E0,4.2427683E0,4.1188636E0,4.827163E0,6.412196E0,2.3303476E1,1.6225559E0,2.0133219E0,6.6262903E0,6.1762844E1,5.0918255E0,1.840296E1],"tree_param":{"num_deleted":"0","num_feature":"15","num_nodes":"45","size_leaf_vector":"0"}},{"base_weights":[-1.3811096E-2,-1.0234601E0,4.3050686E-1,-1.1668944E0,-3.912736E-1,-7.1141526E-2,7.1169376E-1,-1.2649941E0,-9.126032E-1,-9.028876E-1,1.326295E-1,-8.062443E-1,2.3666883E-1,-1.0132729E-2,7.49338E-1,-1.1687224E0,-5.6312877E-1,-1.1227746E0,-4.2934847E-1,-8.4626985E-1,5.3501153E-1,-1.1364849E0,-4.3101868E-1,-6.453121E-1,5.170227E-1,-8.3756435E-1,4.280627E-1,8.4438324E-1,4.5395002E-1,1.056118E0,-9.197139E-1,-7.381797E-1,-1.5557558E-2,9.371105E-1,-1.3853875E-1,-5.2349555E-1,-1.3045487E0,-8.7029517E-1,6.500792E-2,3.5038164E-1,-1.4209412E0,-6.026348E-1,6.842031E-1,5.075323E-3,8.58708E-1,4.6005553E-1,9.073275E-1,9.9817795E-1,2.6423153E-1],"categories":[],"categories_nodes":[],"categories_segments":[],"categories_sizes":[],"default_left":[true,true,true,true,true,true,true,false,true,true,true,true,true,true,true,false,true,false,true,false,true,true,true,true,true,false,true,true,true,false,false,false,false,false,false,false,false,false,false,false,false,false,false,false,false,false,false,false,false],"id":8,"left_children":[1,3,5,7,9,11,13,-1,15,17,19,21,23,25,27,-1,29,-1,31,-1,33,35,37,39,41,-1,43,45,47,-1,-1,-1,-1,-1,-1,-1,-1,-1,-1,-1,-1,-1,-1,-1,-1,-1,-1,-1,-1],"loss_changes":[9.5658714E1,5.4518433E0,2.094046E1,1.5782928E-1,3.752755E0,1.2432916E1,2.5887566E0,0E0,9.7393036E-1,2.4531317E-1,3.4339604E0,1.5169868E0,9.954332E0,2.4234211E0,2.1517868E0,0E0,6.538287E0,0E0,4.7850883E-1,0E0,1.7484478E0,1.4155674E-1,2.0595012E0,8.089024E0,6.0426035E0,0E0,7.944099E-1,1.207077E0,2.2291255E0,0E0,0E0,0E0,0E0,0E0,0E0,0E0,0E0,0E0,0E0,0E0,0E0,0E0,0E0,0E0,0E0,0E0,0E0,0E0,0E0],"parents":[2147483647,0,0,1,1,2,2,3,3,4,4,5,5,6,6,8,8,9,9,10,10,11,11,12,12,13,13,14,14,16,16,18,18,20,20,21,21,22,22,23,23,24,24,26,26,27,27,28,28],"right_children":[2,4,6,8,10,12,14,-1,16,18,20,22,24,26,28,-1,30,-1,32,-1,34,36,38,40,42,-1,44,46,48,-1,-1,-1,-1,-1,-1,-1,-1,-1,-1,-1,-1,-1,-1,-1,-1,-1,-1,-1,-1],"split_conditions":[5E-1,5E-1,5E-1,5E-1,5E-1,5E-1,5E-1,-1.2649941E-1,2.4228947E1,5E-1,1.9347488E1,5E-1,2.2234234E1,5E-1,5E-1,-1.1687224E-1,2.5624E1,-1.1227746E-1,2.5856611E1,-8.462699E-2,5E-1,2.015649E1,3.1169703E1,5E-1,5E-1,-8.375644E-2,4.0501144E1,5E-1,5E-1,1.056118E-1,-9.197139E-2,-7.381797E-2,-1.5557559E-3,9.371105E-2,-1.3853875E-2,-5.2349556E-2,-1.3045488E-1,-8.702952E-2,6.5007918E-3,3.5038166E-2,-1.4209412E-1,-6.026348E-2,6.842031E-2,5.075323E-4,8.58708E-2,4.6005554E-2,9.0732746E-2,9.98178E-2,2.6423154E-2],"split_indices":[8,3,5,0,7,2,9,0,10,1,10,0,10,3,12,0,10,0,10,0,11,10,10,1,1,0,10,4,0,0,0,0,0,0,0,0,0,0,0,0,0,0,0,0,0,0,0,0,0],"split_type":[0,0,0,0,0,0,0,0,0,0,0,0,0,0,0,0,0,0,0,0,0,0,0,0,0,0,0,0,0,0,0,0,0,0,0,0,0,0,0,0,0,0,0,0,0,0,0,0,0],"sum_hessian":[2.1125371E2,6.415873E1,1.4709499E2,5.1604565E1,1.255416E1,5.310342E1,9.399156E1,3.437059E1,1.7233976E1,5.985588E0,6.5685725E0,1.51952715E1,3.790815E1,4.695046E0,8.929652E1,8.592538E0,8.6414385E0,3.1512725E0,2.8343155E0,1.5921359E0,4.9764366E0,7.003023E0,8.192248E0,8.829417E0,2.9078732E1,1.3100058E0,3.38504E0,6.6152466E1,2.314405E1,1.2055051E0,7.4359336E0,1.1740925E0,1.660223E0,2.8711216E0,2.1053147E0,2.3923013E0,4.610722E0,3.9445016E0,4.247747E0,4.10631E0,4.7231073E0,3.439391E0,2.5639341E1,2.2181349E0,1.1669053E0,1.0478897E1,5.5673573E1,4.881003E0,1.8263048E1],"tree_param":{"num_deleted":"0","num_feature":"15","num_nodes":"49","size_leaf_vector":"0"}},{"base_weights":[-1.592406E-2,-8.127824E-1,4.881963E-1,-1.1266234E0,-2.9350954E-1,-1.0821067E-1,6.667789E-1,-1.2276067E0,-8.7005556E-1,-3.7477966E-2,-1.2503464E0,-5.1537794E-1,2.3950179E-1,2.4112695E-1,8.1034625E-1,-1.1307383E0,-5.240337E-1,-5.077234E-1,4.3534404E-1,-7.968823E-1,4.1499585E-1,4.8385593E-1,-1.254663E0,-1.2266736E0,5.4058576E-1,9.821582E-1,5.794612E-1,9.728563E-1,-8.7813574E-1,1.8689942E-1,-1.39191E0,-8.697883E-1,6.49417E-1,-9.4873255E-1,2.930036E-1,9.934918E-1,-5.104791E-1,7.343253E-1,-1.1292961E0,-1.0654206E0,7.198157E-1,5.7991827E-1,1.0958886E0,-6.857576E-1,6.744028E-1],"categories":[],"categories_nodes":[],"categories_segments":[],"categories_sizes":[],"default_left":[true,true,true,true,true,true,true,false,true,true,false,true,true,true,true,false,true,true,true,true,true,true,false,false,true,true,true,false,false,false,false,false,false,false,false,false,false,false,false,false,false,false,false,false,false],"id":9,"left_children":[1,3,5,7,9,11,13,-1,15,17,-1,19,21,23,25,-1,27,29,31,33,35,37,-1,-1,39,41,43,-1,-1,-1,-1,-1,-1,-1,-1,-1,-1,-1,-1,-1,-1,-1,-1,-1,-1],"loss_changes":[8.278691E1,1.2682247E1,1.35185795E1,2.122612E-1,7.653389E0,4.363956E0,5.7503433E0,0E0,9.760866E-1,5.963651E0,0E0,4.027158E0,6.754815E0,1.2075246E1,2.300232E0,0E0,5.802753E0,8.496749E0,4.3134775E0,2.1278944E0,2.6144335E0,6.968041E0,0E0,0E0,7.1737733E0,1.1958542E0,4.4625273E0,0E0,0E0,0E0,0E0,0E0,0E0,0E0,0E0,0E0,0E0,0E0,0E0,0E0,0E0,0E0,0E0,0E0,0E0],"parents":[2147483647,0,0,1,1,2,2,3,3,4,4,5,5,6,6,8,8,9,9,11,11,12,12,13,13,14,14,16,16,17,17,18,18,19,19,20,20,21,21,24,24,25,25,26,26],"right_children":[2,4,6,8,10,12,14,-1,16,18,-1,20,22,24,26,-1,28,30,32,34,36,38,-1,-1,40,42,44,-1,-1,-1,-1,-1,-1,-1,-1,-1,-1,-1,-1,-1,-1,-1,-1,-1,-1],"split_conditions":[5E-1,5E-1,5E-1,5E-1,3.2202972E1,5E-1,1.92653E1,-1.2276067E-1,2.4228947E1,5E-1,-1.2503465E-1,4.2850983E1,5E-1,5E-1,5E-1,-1.13073826E-1,2.5624E1,5E-1,5E-1,5E-1,4.4245308E1,5.433226E1,-1.254663E-1,-1.22667365E-1,5E-1,5E-1,5E-1,9.728563E-2,-8.781358E-2,1.8689943E-2,-1.39191E-1,-8.697883E-2,6.49417E-2,-9.487326E-2,2.930036E-2,9.9349186E-2,-5.104791E-2,7.343253E-2,-1.12929605E-1,-1.06542066E-1,7.198157E-2,5.799183E-2,1.0958886E-1,-6.857576E-2,6.744028E-2],"split_indices":[3,8,6,0,10,4,10,0,10,4,0,10,12,5,11,0,10,0,0,13,10,10,0,0,7,7,4,0,0,0,0,0,0,0,0,0,0,0,0,0,0,0,0,0,0],"split_type":[0,0,0,0,0,0,0,0,0,0,0,0,0,0,0,0,0,0,0,0,0,0,0,0,0,0,0,0,0,0,0,0,0,0,0,0,0,0,0,0,0,0,0,0,0],"sum_hessian":[2.040972E2,7.8849014E1,1.2524818E2,4.841692E1,3.0432096E1,2.8952026E1,9.629615E1,3.2026703E1,1.6390219E1,2.482781E1,5.604287E0,1.3113765E1,1.5838262E1,2.4963446E1,7.133271E1,8.054426E0,8.335793E0,1.2410813E1,1.2416996E1,1.0177752E1,2.9360132E0,1.4193277E1,1.6449841E0,3.705347E0,2.1258099E1,3.903278E1,3.2299927E1,1.2603871E0,7.075405E0,7.392128E0,5.018685E0,1.3180759E0,1.1098921E1,9.046802E0,1.1309497E0,1.7614634E0,1.1745497E0,1.275728E1,1.4359968E0,1.6378198E0,1.9620277E1,9.947984E0,2.9084797E1,1.8202201E0,3.0479708E1],"tree_param":{"num_deleted":"0","num_feature":"15","num_nodes":"45","size_leaf_vector":"0"}},{"base_weights":[-1.8715193E-2,-9.49992E-1,3.6778355E-1,-1.0905963E0,-3.7190533E-1,-2.7957624E-1,5.444373E-1,-1.1950499E0,-8.3091277E-1,-9.5245653E-1,3.2448106E-2,-4.0274806E-2,-1.1961571E0,1.01656064E-1,6.5092695E-1,-1.0965681E0,-4.881237E-1,-1.0859784E0,-3.008296E-1,-8.548955E-1,4.0015164E-1,-4.7387332E-1,3.967423E-1,2.533657E-1,-1.1245034E0,3.6341777E-1,7.9962176E-1,8.987572E-1,-8.3905786E-1,6.9892323E-1,1.7401788E-2,1.7023984E-1,-1.3230529E0,-8.348019E-1,5.9892815E-1,-2.9940084E-1,8.332253E-1,-1.2836004E0,6.261402E-1,9.897275E-1,5.543002E-1],"categories":[],"categories_nodes":[],"categories_segments":[],"categories_sizes":[],"default_left":[true,true,true,true,true,true,true,false,true,true,true,true,false,true,true,false,true,false,false,false,true,true,true,true,false,true,true,false,false,false,false,false,false,false,false,false,false,false,false,false,false],"id":10,"left_children":[1,3,5,7,9,11,13,-1,15,17,19,21,-1,23,25,-1,27,-1,-1,-1,29,31,33,35,-1,37,39,-1,-1,-1,-1,-1,-1,-1,-1,-1,-1,-1,-1,-1,-1],"loss_changes":[7.147181E1,4.3277016E0,1.6203941E1,2.6353073E-1,3.0615568E0,6.6969566E0,5.1493263E0,0E0,9.7364616E-1,1.373334E-1,3.1405814E0,5.004904E0,0E0,4.494504E0,3.5134583E0,0E0,5.15238E0,0E0,0E0,0E0,7.591909E-1,7.4538407E0,3.7879314E0,6.96587E0,0E0,1.4721973E1,2.1477585E0,0E0,0E0,0E0,0E0,0E0,0E0,0E0,0E0,0E0,0E0,0E0,0E0,0E0,0E0],"parents":[2147483647,0,0,1,1,2,2,3,3,4,4,5,5,6,6,8,8,9,9,10,10,11,11,13,13,14,14,16,16,20,20,21,21,22,22,23,23,25,25,26,26],"right_children":[2,4,6,8,10,12,14,-1,16,18,20,22,-1,24,26,-1,28,-1,-1,-1,30,32,34,36,-1,38,40,-1,-1,-1,-1,-1,-1,-1,-1,-1,-1,-1,-1,-1,-1],"split_conditions":[5E-1,5E-1,5E-1,5E-1,5E-1,3.2202972E1,5E-1,-1.1950499E-1,2.4228947E1,5E-1,1.9347488E1,5E-1,-1.1961571E-1,5.296776E1,2.3335629E1,-1.0965681E-1,2.5624E1,-1.0859784E-1,-3.008296E-2,-8.548955E-2,5E-1,5E-1,5E-1,3.0347313E1,-1.1245034E-1,5E-1,5E-1,8.987572E-2,-8.390579E-2,6.9892325E-2,1.7401789E-3,1.7023984E-2,-1.323053E-1,-8.3480194E-2,5.9892815E-2,-2.9940084E-2,8.332253E-2,-1.2836005E-1,6.2614016E-2,9.897275E-2,5.543002E-2],"split_indices":[8,3,3,0,1,10,6,0,10,6,10,4,0,10,10,0,10,0,0,0,11,0,0,10,0,7,11,0,0,0,0,0,0,0,0,0,0,0,0,0,0],"split_type":[0,0,0,0,0,0,0,0,0,0,0,0,0,0,0,0,0,0,0,0,0,0,0,0,0,0,0,0,0,0,0,0,0,0,0,0,0,0,0,0,0],"sum_hessian":[1.9659668E2,5.7233475E1,1.393632E2,4.5323235E1,1.1910241E1,2.975207E1,1.0961114E2,2.9753445E1,1.556979E1,4.333256E0,7.5769854E0,2.4420336E1,5.3317347E0,2.1629766E1,8.798137E1,7.532938E0,8.036852E0,3.0431361E0,1.2901196E0,1.831718E0,5.7452674E0,1.2215779E1,1.22045555E1,1.9954245E1,1.6755221E0,3.1165432E1,5.6815937E1,1.3077241E0,6.7291274E0,2.762682E0,2.9825854E0,7.4013147E0,4.814464E0,1.279859E0,1.0924697E1,1.04634E1,9.490845E0,3.7528548E0,2.7412579E1,3.030074E1,2.6515196E1],"tree_param":{"num_deleted":"0","num_feature":"15","num_nodes":"41","size_leaf_vector":"0"}},{"base_weights":[-2.1157587E-2,-9.15685E-1,3.3950981E-1,-1.0579802E0,-3.548678E-1,-9.8028325E-2,5.8840156E-1,-1.1664162E0,-7.9458565E-1,-8.1421834E-1,1.1795158E-1,-1.2301588E0,7.2960846E-2,-1.0930079E-2,6.2054145E-1,-1.0654807E0,-4.5498034E-1,-1.007812E0,-3.5444877E-1,-7.588229E-1,4.682315E-1,-4.8435605E-1,4.008035E-1,4.0748125E-1,-8.788938E-1,7.202353E-1,3.2426015E-1,8.3246905E-1,-8.020657E-1,4.0406235E-2,-5.6552637E-1,8.3397186E-1,-1.1829199E-1,1.0508074E-1,-9.956307E-1,-2.272467E-1,6.8814075E-1,-3.5635152E-1,9.2706746E-1,2.9859033E-1,7.7190906E-1,8.869413E-1,1.4288966E-1],"categories":[],"categories_nodes":[],"categories_segments":[],"categories_sizes":[],"default_left":[true,true,true,true,true,true,true,false,true,true,true,false,true,true,true,false,true,false,true,false,true,true,true,true,false,true,true,false,false,false,false,false,false,false,false,false,false,false,false,false,false,false,false],"id":11,"left_children":[1,3,5,7,9,11,13,-1,15,17,19,-1,21,23,25,-1,27,-1,29,-1,31,33,35,37,-1,39,41,-1,-1,-1,-1,-1,-1,-1,-1,-1,-1,-1,-1,-1,-1,-1,-1],"loss_changes":[6.1743465E1,4.0123596E0,1.4914836E1,3.1136703E-1,2.839645E0,9.83179E0,1.6846313E0,0E0,9.668989E-1,2.2435904E-1,2.5353262E0,0E0,8.355101E0,2.3250532E0,2.2088642E0,0E0,4.5763464E0,0E0,3.127689E-1,0E0,1.3193383E0,5.2265882E0,5.330183E0,2.0518675E0,0E0,1.0997047E0,2.183481E0,0E0,0E0,0E0,0E0,0E0,0E0,0E0,0E0,0E0,0E0,0E0,0E0,0E0,0E0,0E0,0E0],"parents":[2147483647,0,0,1,1,2,2,3,3,4,4,5,5,6,6,8,8,9,9,10,10,12,12,13,13,14,14,16,16,18,18,20,20,21,21,22,22,23,23,25,25,26,26],"right_children":[2,4,6,8,10,12,14,-1,16,18,20,-1,22,24,26,-1,28,-1,30,-1,32,34,36,38,-1,40,42,-1,-1,-1,-1,-1,-1,-1,-1,-1,-1,-1,-1,-1,-1,-1,-1],"split_conditions":[5E-1,5E-1,5E-1,5E-1,5E-1,1.6744762E1,5E-1,-1.1664162E-1,2.4228947E1,3.0823366E1,1.9347488E1,-1.2301588E-1,5E-1,5E-1,5E-1,-1.0654807E-1,2.5624E1,-1.007812E-1,4.23961E1,-7.588229E-2,5E-1,2.6141136E1,3.093783E1,5E-1,-8.788938E-2,1.3580485E1,5E-1,8.324691E-2,-8.0206566E-2,4.0406235E-3,-5.6552637E-2,8.339719E-2,-1.1829199E-2,1.0508074E-2,-9.956307E-2,-2.2724671E-2,6.881408E-2,-3.5635155E-2,9.270675E-2,2.9859034E-2,7.7190906E-2,8.869413E-2,1.4288967E-2],"split_indices":[8,3,5,0,7,10,9,0,10,10,10,0,4,2,12,0,10,0,10,0,11,10,10,6,0,10,0,0,0,0,0,0,0,0,0,0,0,0,0,0,0,0,0],"split_type":[0,0,0,0,0,0,0,0,0,0,0,0,0,0,0,0,0,0,0,0,0,0,0,0,0,0,0,0,0,0,0,0,0,0,0,0,0,0,0,0,0,0,0],"sum_hessian":[1.8941371E2,5.3983917E1,1.354298E2,4.235162E1,1.16322975E1,4.93251E1,8.610469E1,2.7572138E1,1.4779481E1,5.533945E0,6.098353E0,5.6594095E0,4.3665688E1,4.4160395E0,8.168865E1,7.0324516E0,7.74703E0,3.0554163E0,2.4785287E0,1.4079145E0,4.6904387E0,1.5995944E1,2.7669744E1,3.3376303E0,1.078409E0,6.005141E1,2.1637241E1,1.3480879E0,6.398942E0,1.1450666E0,1.3334621E0,2.6291075E0,2.061331E0,7.79906E0,8.196884E0,8.751091E0,1.8918653E1,1.4784114E0,1.8592188E0,7.2960286E0,5.2755383E1,4.3260255E0,1.7311216E1],"tree_param":{"num_deleted":"0","num_feature":"15","num_nodes":"43","size_leaf_vector":"0"}},{"base_weights":[-2.2186235E-2,-8.8461787E-1,3.1404042E-1,-1.0281154E0,-3.4085116E-1,-9.352316E-2,5.4773396E-1,-1.1409907E0,-7.6061165E-1,-8.954347E-1,3.9345764E-2,-1.1643326E0,6.594947E-2,-1.5444745E-2,5.781252E-1,-1.0368955E0,-4.2426863E-1,-1.0255076E0,-2.68015E-1,-7.9416037E-1,3.7003952E-1,-5.8286613E-1,3.1350422E-1,3.8778704E-1,-8.440063E-1,6.7345834E-1,3.0052808E-1,7.7286476E-1,-7.6683843E-1,-7.989909E-2,5.5882514E-1,-9.7410464E-1,-1.7498307E-1,6.3202184E-1,-5.1552758E-2,-3.362815E-1,8.903204E-1,2.7488372E-1,7.2371733E-1,8.4831727E-1,1.2999126E-1],"categories":[],"categories_nodes":[],"categories_segments":[],"categories_sizes":[],"default_left":[true,true,true,true,true,true,true,false,true,true,true,false,true,true,true,false,true,false,false,false,true,true,true,true,false,true,true,false,false,false,false,false,false,false,false,false,false,false,false,false,false],"id":12,"left_children":[1,3,5,7,9,11,13,-1,15,17,19,-1,21,23,25,-1,27,-1,-1,-1,29,31,33,35,-1,37,39,-1,-1,-1,-1,-1,-1,-1,-1,-1,-1,-1,-1,-1,-1],"loss_changes":[5.3597897E1,3.6946602E0,1.2722528E1,3.5565186E-1,2.6329267E0,8.501917E0,1.4586506E0,0E0,9.5619106E-1,1.3752079E-1,2.5725782E0,0E0,7.232026E0,2.1016304E0,1.9250832E0,0E0,4.065425E0,0E0,0E0,0E0,6.053489E-1,1.8196182E0,3.802057E0,1.8485494E0,0E0,9.8363686E-1,1.9782162E0,0E0,0E0,0E0,0E0,0E0,0E0,0E0,0E0,0E0,0E0,0E0,0E0,0E0,0E0],"parents":[2147483647,0,0,1,1,2,2,3,3,4,4,5,5,6,6,8,8,9,9,10,10,12,12,13,13,14,14,16,16,20,20,21,21,22,22,23,23,25,25,26,26],"right_children":[2,4,6,8,10,12,14,-1,16,18,20,-1,22,24,26,-1,28,-1,-1,-1,30,32,34,36,-1,38,40,-1,-1,-1,-1,-1,-1,-1,-1,-1,-1,-1,-1,-1,-1],"split_conditions":[5E-1,5E-1,5E-1,5E-1,5E-1,1.6744762E1,5E-1,-1.1409908E-1,2.4228947E1,5E-1,1.9347488E1,-1.1643326E-1,5E-1,5E-1,5E-1,-1.0368955E-1,2.5624E1,-1.0255076E-1,-2.68015E-2,-7.941604E-2,5E-1,5E-1,5E-1,5E-1,-8.440063E-2,1.3580485E1,5E-1,7.7286474E-2,-7.668384E-2,-7.989909E-3,5.5882514E-2,-9.741046E-2,-1.7498307E-2,6.320219E-2,-5.155276E-3,-3.362815E-2,8.903205E-2,2.7488371E-2,7.2371736E-2,8.483173E-2,1.2999127E-2],"split_indices":[8,3,5,0,1,10,9,0,10,6,10,0,2,2,12,0,10,0,0,0,7,0,11,6,0,10,0,0,0,0,0,0,0,0,0,0,0,0,0,0,0],"split_type":[0,0,0,0,0,0,0,0,0,0,0,0,0,0,0,0,0,0,0,0,0,0,0,0,0,0,0,0,0,0,0,0,0,0,0,0,0,0,0,0,0],"sum_hessian":[1.8287982E2,5.084074E1,1.3203908E2,3.9520687E1,1.1320055E1,4.8337627E1,8.370145E1,2.549679E1,1.4023897E1,4.052943E0,7.2671113E0,5.4488873E0,4.288874E1,4.3107543E0,7.939069E1,6.5558453E0,7.4680524E0,2.8314586E0,1.2214849E0,1.6661415E0,5.60097E0,1.1470705E1,3.1418034E1,3.2574456E0,1.0533087E0,5.8034348E1,2.1356344E1,1.3821068E0,6.0859456E0,1.8259351E0,3.7750344E0,5.146257E0,6.3244486E0,1.6387981E1,1.5030052E1,1.4700997E0,1.787346E0,7.2229285E0,5.081142E1,4.1266255E0,1.722972E1],"tree_param":{"num_deleted":"0","num_feature":"15","num_nodes":"41","size_leaf_vector":"0"}},{"base_weights":[-2.3290604E-2,-8.5511017E-1,2.8979573E-1,-1.0004739E0,-3.2768294E-1,-2.6242462E-1,4.4368038E-1,-1.118202E0,-7.286263E-1,-8.568126E-1,3.1890888E-2,-4.081322E-2,-1.1330954E0,2.8816374E-2,5.473357E-1,-1.0103472E0,-3.957182E-1,-9.860095E-1,-2.5414163E-1,-7.6753205E-1,3.432018E-1,-4.2039746E-1,3.4198648E-1,1.7496479E-1,-1.0884845E0,2.7995795E-1,6.9001985E-1,7.1900743E-1,-7.33129E-1,6.171709E-1,8.571145E-3,1.9651747E-1,-1.2601376E0,-7.531347E-1,5.2149135E-1,-3.3507535E-1,7.420035E-1,-1.2406064E0,5.281349E-1,9.731903E-1,5.0536543E-1],"categories":[],"categories_nodes":[],"categories_segments":[],"categories_sizes":[],"default_left":[true,true,true,true,true,true,true,false,true,true,true,true,false,true,true,false,true,false,false,false,true,true,true,true,false,true,true,false,false,false,false,false,false,false,false,false,false,false,false,false,false],"id":13,"left_children":[1,3,5,7,9,11,13,-1,15,17,19,21,-1,23,25,-1,27,-1,-1,-1,29,31,33,35,-1,37,39,-1,-1,-1,-1,-1,-1,-1,-1,-1,-1,-1,-1,-1,-1],"loss_changes":[4.656985E1,3.4206963E0,1.1161398E1,3.9633942E-1,2.3201275E0,5.54048E0,4.371374E0,0E0,9.4190025E-1,1.3185549E-1,2.2889922E0,3.6480958E0,0E0,3.6930547E0,2.9187603E0,0E0,3.6117222E0,0E0,0E0,0E0,5.951066E-1,6.753274E0,2.8616166E0,5.9838E0,0E0,1.2001023E1,2.253563E0,0E0,0E0,0E0,0E0,0E0,0E0,0E0,0E0,0E0,0E0,0E0,0E0,0E0,0E0],"parents":[2147483647,0,0,1,1,2,2,3,3,4,4,5,5,6,6,8,8,9,9,10,10,11,11,13,13,14,14,16,16,20,20,21,21,22,22,23,23,25,25,26,26],"right_children":[2,4,6,8,10,12,14,-1,16,18,20,22,-1,24,26,-1,28,-1,-1,-1,30,32,34,36,-1,38,40,-1,-1,-1,-1,-1,-1,-1,-1,-1,-1,-1,-1,-1,-1],"split_conditions":[5E-1,5E-1,5E-1,5E-1,5E-1,3.2202972E1,5E-1,-1.118202E-1,2.4228947E1,5E-1,1.9347488E1,5E-1,-1.1330954E-1,5.296776E1,2.3335629E1,-1.0103472E-1,2.5624E1,-9.860095E-2,-2.5414163E-2,-7.675321E-2,5E-1,5E-1,5E-1,3.0347313E1,-1.0884845E-1,5E-1,3.4762833E1,7.190075E-2,-7.33129E-2,6.171709E-2,8.571145E-4,1.9651746E-2,-1.2601376E-1,-7.531347E-2,5.2149136E-2,-3.3507537E-2,7.4200355E-2,-1.24060646E-1,5.281349E-2,9.731903E-2,5.0536543E-2],"split_indices":[8,3,3,0,1,10,6,0,10,6,10,4,0,10,10,0,10,0,0,0,11,0,0,10,0,7,10,0,0,0,0,0,0,0,0,0,0,0,0,0,0],"split_type":[0,0,0,0,0,0,0,0,0,0,0,0,0,0,0,0,0,0,0,0,0,0,0,0,0,0,0,0,0,0,0,0,0,0,0,0,0,0,0,0,0],"sum_hessian":[1.7686664E2,4.7892586E1,1.2897406E2,3.6841766E1,1.1050819E1,2.7954182E1,1.01019875E2,2.3535841E1,1.3305926E1,3.911706E0,7.1391134E0,2.3117079E1,4.837103E0,2.045E1,8.056987E1,6.1048384E0,7.2010875E0,2.6973898E0,1.214316E0,1.5901763E0,5.5489373E0,1.1557973E1,1.1559106E1,1.8830309E1,1.6196922E0,2.9065575E1,5.15043E1,1.4104241E0,5.7906632E0,2.5867643E0,2.9621727E0,7.104576E0,4.4533973E0,1.1778243E0,1.0381281E1,1.0128764E1,8.701545E0,3.5171769E0,2.5548397E1,1.8643642E1,3.2860653E1],"tree_param":{"num_deleted":"0","num_feature":"15","num_nodes":"41","size_leaf_vector":"0"}},{"base_weights":[-2.5655044E-2,-8.2685524E-1,2.6664063E-1,-9.746273E-1,-3.138983E-1,-1.0407672E-1,4.819624E-1,-1.0975858E0,-6.9834167E-1,-7.319724E-1,1.12575665E-1,-1.1042734E0,4.390654E-2,5.5765396E-1,2.6498294E-1,-9.8545986E-1,-3.6910883E-1,-1.8011154E-1,-8.981646E-1,-6.769715E-1,4.113316E-1,-4.2131045E-1,3.2110277E-1,9.187425E-2,6.6139984E-1,8.8853675E-1,5.4038268E-2,6.7011833E-1,-7.0074797E-1,9.109694E-1,-4.8408017E-2,2.1941273E-1,-8.569779E-1,-2.6810905E-1,6.0697937E-1,-6.964756E-1,2.7908543E-1,7.1244127E-1,-1.782726E-1,1.6067974E-1,1.0160611E0,-1.1688116E0,2.3337314E-1],"categories":[],"categories_nodes":[],"categories_segments":[],"categories_sizes":[],"default_left":[true,true,true,true,true,true,true,false,true,true,true,false,true,true,true,false,true,false,false,false,true,true,true,true,true,true,true,false,false,false,false,false,false,false,false,false,false,false,false,false,false,false,false],"id":14,"left_children":[1,3,5,7,9,11,13,-1,15,17,19,-1,21,23,25,-1,27,-1,-1,-1,29,31,33,35,37,39,41,-1,-1,-1,-1,-1,-1,-1,-1,-1,-1,-1,-1,-1,-1,-1,-1],"loss_changes":[4.0402184E1,3.1890583E0,1.0145575E1,4.3341064E-1,2.1840076E0,7.048059E0,1.1690865E0,0E0,9.244132E-1,3.9635634E-1,1.8592495E0,0E0,5.5717235E0,2.7680035E0,2.930225E0,0E0,3.2084575E0,0E0,0E0,0E0,1.3037825E0,4.70255E0,4.7080355E0,1.9395899E0,2.1719456E0,3.6197948E-1,4.2165217E0,0E0,0E0,0E0,0E0,0E0,0E0,0E0,0E0,0E0,0E0,0E0,0E0,0E0,0E0,0E0,0E0],"parents":[2147483647,0,0,1,1,2,2,3,3,4,4,5,5,6,6,8,8,9,9,10,10,12,12,13,13,14,14,16,16,20,20,21,21,22,22,23,23,24,24,25,25,26,26],"right_children":[2,4,6,8,10,12,14,-1,16,18,20,-1,22,24,26,-1,28,-1,-1,-1,30,32,34,36,38,40,42,-1,-1,-1,-1,-1,-1,-1,-1,-1,-1,-1,-1,-1,-1,-1,-1],"split_conditions":[5E-1,5E-1,5E-1,5E-1,5E-1,1.6744762E1,5E-1,-1.0975858E-1,2.4228947E1,5E-1,1.9347488E1,-1.1042734E-1,5E-1,5E-1,5E-1,-9.854599E-2,2.5624E1,-1.8011155E-2,-8.981646E-2,-6.769715E-2,2.1512905E1,2.3639874E1,3.093783E1,5E-1,5.526571E1,1.8079596E1,5E-1,6.701183E-2,-7.00748E-2,9.109694E-2,-4.840802E-3,2.1941273E-2,-8.569779E-2,-2.6810905E-2,6.069794E-2,-6.9647565E-2,2.7908543E-2,7.124413E-2,-1.7827261E-2,1.6067974E-2,1.0160611E-1,-1.16881154E-1,2.3337314E-2],"split_indices":[8,3,5,0,7,10,12,0,10,9,10,0,4,4,0,0,10,0,0,0,10,10,10,9,10,10,6,0,0,0,0,0,0,0,0,0,0,0,0,0,0,0,0],"split_type":[0,0,0,0,0,0,0,0,0,0,0,0,0,0,0,0,0,0,0,0,0,0,0,0,0,0,0,0,0,0,0,0,0,0,0,0,0,0,0,0,0,0,0],"sum_hessian":[1.7057932E2,4.510766E1,1.25471664E2,3.4320602E1,1.0787058E1,4.6290466E1,7.91812E1,2.169347E1,1.26271305E1,5.085442E0,5.7016153E0,5.1332755E0,4.1157192E1,5.753907E1,2.1642124E1,5.6802673E0,6.946863E0,1.6592983E0,3.426144E0,1.2176534E0,4.483962E0,1.5172822E1,2.598437E1,1.0824909E1,4.671416E1,4.6587253E0,1.6983398E1,1.4336718E0,5.513191E0,1.6784064E0,2.8055556E0,6.3420835E0,8.830739E0,8.50896E0,1.747541E1,1.5552893E0,9.26962E0,4.41801E1,2.5340643E0,1.0314753E0,3.62725E0,1.4664537E0,1.5516945E1],"tree_param":{"num_deleted":"0","num_feature":"15","num_nodes":"43","size_leaf_vector":"0"}},{"base_weights":[-2.6723033E-2,-7.98996E-1,2.4557583E-1,-9.502257E-1,-2.9713428E-1,-9.870823E-2,4.470749E-1,-1.0787604E0,-6.695303E-1,-8.0975664E-1,4.2865124E-2,-1.0509688E0,3.953054E-2,1.8396263E-1,5.032859E-1,-9.6192753E-1,-3.4425944E-1,-9.344921E-1,-2.3025283E-1,-7.21635E-1,3.2861897E-1,-5.155962E-1,2.5263792E-1,8.031372E-1,-5.3375278E-2,3.0813208E-1,6.320669E-1,2.904694E-1,-9.0581316E-1,5.9136605E-1,1.06167495E-2,-9.086274E-1,-1.13894396E-1,5.537813E-1,-8.187567E-2,2.3852937E-1,9.2153907E-1,3.8315815E-1,-3.833764E-1,-5.5006635E-1,4.9920225E-1,9.126378E-1,3.6355677E-1],"categories":[],"categories_nodes":[],"categories_segments":[],"categories_sizes":[],"default_left":[true,true,true,true,true,true,true,false,true,true,true,false,true,true,true,false,true,false,false,false,true,true,true,true,true,true,true,false,false,false,false,false,false,false,false,false,false,false,false,false,false,false,false],"id":15,"left_children":[1,3,5,7,9,11,13,-1,15,17,19,-1,21,23,25,-1,27,-1,-1,-1,29,31,33,35,37,39,41,-1,-1,-1,-1,-1,-1,-1,-1,-1,-1,-1,-1,-1,-1,-1,-1],"loss_changes":[3.5083656E1,3.0178223E0,8.606123E0,4.668579E-1,2.043202E0,6.147612E0,1.0615368E0,0E0,9.04119E-1,1.20636225E-1,1.9581978E0,0E0,5.0360537E0,2.2931287E0,1.4067154E0,0E0,3.009706E0,0E0,0E0,0E0,5.302875E-1,1.7645936E0,3.1315408E0,6.800747E-2,1.8766217E0,4.748543E0,2.4886484E0,0E0,0E0,0E0,0E0,0E0,0E0,0E0,0E0,0E0,0E0,0E0,0E0,0E0,0E0,0E0,0E0],"parents":[2147483647,0,0,1,1,2,2,3,3,4,4,5,5,6,6,8,8,9,9,10,10,12,12,13,13,14,14,16,16,20,20,21,21,22,22,23,23,24,24,25,25,26,26],"right_children":[2,4,6,8,10,12,14,-1,16,18,20,-1,22,24,26,-1,28,-1,-1,-1,30,32,34,36,38,40,42,-1,-1,-1,-1,-1,-1,-1,-1,-1,-1,-1,-1,-1,-1,-1,-1],"split_conditions":[5E-1,5E-1,5E-1,5E-1,5E-1,1.6744762E1,5E-1,-1.0787604E-1,2.4228947E1,5E-1,1.9347488E1,-1.0509688E-1,5E-1,1.8061817E1,2.3091635E1,-9.6192755E-2,3.1824076E1,-9.344921E-2,-2.3025284E-2,-7.21635E-2,5E-1,5E-1,5E-1,5E-1,5E-1,5E-1,3.664395E1,2.9046942E-2,-9.058132E-2,5.9136607E-2,1.061675E-3,-9.086274E-2,-1.138944E-2,5.5378128E-2,-8.187567E-3,2.3852937E-2,9.215391E-2,3.8315814E-2,-3.833764E-2,-5.5006634E-2,4.9920227E-2,9.1263786E-2,3.6355678E-2],"split_indices":[8,3,5,0,1,10,6,0,10,6,10,0,2,10,10,0,10,0,0,0,11,0,11,4,11,7,10,0,0,0,0,0,0,0,0,0,0,0,0,0,0,0,0],"split_type":[0,0,0,0,0,0,0,0,0,0,0,0,0,0,0,0,0,0,0,0,0,0,0,0,0,0,0,0,0,0,0,0,0,0,0,0,0,0,0,0,0,0,0],"sum_hessian":[1.6490233E2,4.2482494E1,1.2241983E2,3.1958733E1,1.0523763E1,4.5384823E1,7.7035E1,1.9970682E1,1.198805E1,3.6455975E0,6.878165E0,4.916291E0,4.0468533E1,1.4312732E1,6.272227E1,5.282297E0,6.7057533E0,2.4958127E0,1.1497848E0,1.4563913E0,5.4217734E0,1.0832186E1,2.9636347E1,3.3054445E0,1.1007287E1,2.6284147E1,3.6438126E1,3.3743908E0,3.3313627E0,2.498104E0,2.9236693E0,4.837326E0,5.994859E0,1.5251141E1,1.4385206E1,1.095595E0,2.2098496E0,4.6694045E0,6.3378825E0,4.4441624E0,2.1839985E1,1.6645771E1,1.9792355E1],"tree_param":{"num_deleted":"0","num_feature":"15","num_nodes":"43","size_leaf_vector":"0"}},{"base_weights":[-2.7155815E-2,-6.170324E-1,2.9481253E-1,-8.851102E-1,-1.4328387E-1,-1.3897818E-1,4.348449E-1,-9.688096E-1,-1.8029183E-2,1.7519407E-1,-1.1347396E0,5.1363602E-2,-8.19614E-1,7.530211E-2,5.607399E-1,-1.0905813E0,-6.2339187E-1,5.9569246E-1,-6.4477676E-1,-6.4894605E-1,4.1868892E-1,1.9868344E-1,-1.047475E0,-1.2759761E0,3.1694093E-1,-1.051404E0,3.0474928E-1,7.5158083E-1,3.248408E-1,1.2577521E0,-1.0445253E0,-1.186766E0,3.3324078E-1,-1.5759926E-1,5.989111E-1,-3.1810027E-1,5.8419347E-1,-9.2511505E-1,4.6405464E-1,8.937737E-1,2.8700343E-1,-7.670627E-1,4.2411888E-1],"categories":[],"categories_nodes":[],"categories_segments":[],"categories_sizes":[],"default_left":[true,true,true,true,true,true,true,true,true,true,false,true,true,true,true,false,true,false,false,true,true,true,false,false,false,false,true,true,true,false,false,false,false,false,false,false,false,false,false,false,false,false,false],"id":16,"left_children":[1,3,5,7,9,11,13,15,17,19,-1,21,23,25,27,-1,29,-1,-1,31,33,35,-1,-1,-1,-1,37,39,41,-1,-1,-1,-1,-1,-1,-1,-1,-1,-1,-1,-1,-1,-1],"loss_changes":[3.0737589E1,7.1289406E0,6.4237137E0,2.6164207E0,7.0946155E0,3.4521317E0,3.553279E0,7.1149063E-1,2.0049446E0,3.7625604E0,0E0,3.6902082E0,3.4185708E0,5.94464E0,2.3974686E0,0E0,9.9933605E0,0E0,0E0,2.6983829E0,1.5521729E0,4.132062E0,0E0,0E0,0E0,0E0,4.1224694E0,1.8359394E0,3.3608184E0,0E0,0E0,0E0,0E0,0E0,0E0,0E0,0E0,0E0,0E0,0E0,0E0,0E0,0E0],"parents":[2147483647,0,0,1,1,2,2,3,3,4,4,5,5,6,6,7,7,8,8,9,9,11,11,12,12,13,13,14,14,16,16,19,19,20,20,21,21,26,26,27,27,28,28],"right_children":[2,4,6,8,10,12,14,16,18,20,-1,22,24,26,28,-1,30,-1,-1,32,34,36,-1,-1,-1,-1,38,40,42,-1,-1,-1,-1,-1,-1,-1,-1,-1,-1,-1,-1,-1,-1],"split_conditions":[5E-1,5E-1,5E-1,5E-1,2.8582464E1,5E-1,1.92653E1,3.143459E1,5E-1,1.46741295E1,-1.1347397E-1,5.296776E1,4.0750404E1,5E-1,5E-1,-1.09058134E-1,3.1715881E1,5.9569247E-2,-6.4477675E-2,5E-1,5E-1,5E-1,-1.047475E-1,-1.2759762E-1,3.1694096E-2,-1.051404E-1,5E-1,5E-1,5E-1,1.257752E-1,-1.0445253E-1,-1.186766E-1,3.3324078E-2,-1.5759926E-2,5.9891112E-2,-3.1810027E-2,5.8419347E-2,-9.2511505E-2,4.6405464E-2,8.9377366E-2,2.8700342E-2,-7.6706275E-2,4.241189E-2],"split_indices":[3,2,6,5,10,12,10,10,0,10,0,10,10,5,11,0,10,0,0,13,9,4,0,0,0,0,7,12,4,0,0,0,0,0,0,0,0,0,0,0,0,0,0],"split_type":[0,0,0,0,0,0,0,0,0,0,0,0,0,0,0,0,0,0,0,0,0,0,0,0,0,0,0,0,0,0,0,0,0,0,0,0,0,0,0,0,0,0,0],"sum_hessian":[1.5988576E2,5.6131348E1,1.037544E2,3.5292336E1,2.0839012E1,2.5321444E1,7.843296E1,3.2078476E1,3.2138622E0,1.6395655E1,4.4433575E0,2.0510233E1,4.811211E0,2.0755514E1,5.7677444E1,2.2122314E1,9.956161E0,1.6488401E0,1.565022E0,3.359581E0,1.3036073E1,1.8807875E1,1.702359E0,3.3452995E0,1.4659114E0,2.905525E0,1.7849989E1,3.0675285E1,2.700216E1,1.4577969E0,8.4983635E0,2.0362785E0,1.3233026E0,3.1354654E0,9.900607E0,8.110478E0,1.0697396E1,1.495706E0,1.6354284E1,2.2779377E1,7.895907E0,1.6898663E0,2.5312292E1],"tree_param":{"num_deleted":"0","num_feature":"15","num_nodes":"43","size_leaf_vector":"0"}},{"base_weights":[-2.8999235E-2,-7.522163E-1,2.1064617E-1,-9.017432E-1,-2.9406056E-1,-2.314656E-1,3.3595973E-1,-1.0460932E0,-6.0753316E-1,-7.7969694E-1,2.7508708E-2,-3.2630157E-2,-1.0489268E0,5.3512466E-1,1.532894E-1,-9.219637E-1,-2.7974525E-1,-8.96227E-1,-2.223451E-1,-6.8495345E-1,2.8919542E-1,-3.3728284E-1,2.714135E-1,-2.9287335E-1,6.6598886E-1,-4.2907843E-1,3.5168403E-1,2.971841E-1,-8.521453E-1,5.025903E-1,-6.494444E-2,2.6139727E-1,-1.1807594E0,6.7174E-1,-1.7131753E-1,3.9011878E-1,-1.4432335E0,8.46812E-1,9.625105E-2,-1.0954857E0,1.4107376E-1,5.4786575E-1,-2.0861272E-2],"categories":[],"categories_nodes":[],"categories_segments":[],"categories_sizes":[],"default_left":[true,true,true,true,true,true,true,false,true,true,true,true,false,true,true,false,true,false,false,false,true,true,true,true,true,true,true,false,false,false,false,false,false,false,false,false,false,false,false,false,false,false,false],"id":17,"left_children":[1,3,5,7,9,11,13,-1,15,17,19,21,-1,23,25,-1,27,-1,-1,-1,29,31,33,35,37,39,41,-1,-1,-1,-1,-1,-1,-1,-1,-1,-1,-1,-1,-1,-1,-1,-1],"loss_changes":[2.706306E1,2.3966522E0,6.580911E0,5.880146E-1,1.7462335E0,4.2755175E0,3.2601566E0,0E0,9.652877E-1,8.87053E-2,1.6170263E0,2.1626499E0,0E0,4.913576E0,5.849047E0,0E0,2.646193E0,0E0,0E0,0E0,5.064225E-1,6.1736236E0,2.196734E0,5.77824E0,3.8239498E0,5.0872335E0,2.7401714E0,0E0,0E0,0E0,0E0,0E0,0E0,0E0,0E0,0E0,0E0,0E0,0E0,0E0,0E0,0E0,0E0],"parents":[2147483647,0,0,1,1,2,2,3,3,4,4,5,5,6,6,8,8,9,9,10,10,11,11,13,13,14,14,16,16,20,20,21,21,22,22,23,23,24,24,25,25,26,26],"right_children":[2,4,6,8,10,12,14,-1,16,18,20,22,-1,24,26,-1,28,-1,-1,-1,30,32,34,36,38,40,42,-1,-1,-1,-1,-1,-1,-1,-1,-1,-1,-1,-1,-1,-1,-1,-1],"split_conditions":[5E-1,5E-1,5E-1,5E-1,5E-1,3.2202972E1,5E-1,-1.04609326E-1,2.4228947E1,5E-1,1.9347488E1,5E-1,-1.04892686E-1,1.7797169E1,5E-1,-9.219637E-2,3.1824076E1,-8.96227E-2,-2.223451E-2,-6.849535E-2,3.391362E1,5E-1,1.7380701E1,1.3280243E1,5E-1,3.090033E1,3.4721706E1,2.9718412E-2,-8.521453E-2,5.025903E-2,-6.494444E-3,2.6139727E-2,-1.18075944E-1,6.7174E-2,-1.7131753E-2,3.9011877E-2,-1.4432335E-1,8.4681205E-2,9.625105E-3,-1.0954857E-1,1.4107376E-2,5.4786574E-2,-2.0861272E-3],"split_indices":[8,3,3,0,1,10,11,0,10,6,10,4,0,10,5,0,10,0,0,0,10,0,10,10,12,10,10,0,0,0,0,0,0,0,0,0,0,0,0,0,0,0,0],"split_type":[0,0,0,0,0,0,0,0,0,0,0,0,0,0,0,0,0,0,0,0,0,0,0,0,0,0,0,0,0,0,0,0,0,0,0,0,0,0,0,0,0,0,0],"sum_hessian":[1.5423474E2,3.785492E1,1.1637983E2,2.7810339E1,1.00445795E1,2.5514933E1,9.08649E1,1.6942253E1,1.0868084E1,3.4339457E0,6.6106343E0,2.1359472E1,4.1554613E0,4.2546795E1,4.83181E1,4.6218715E0,6.246213E0,2.3372655E0,1.0966804E0,1.3413231E0,5.269311E0,1.0614443E1,1.07450285E1,5.6377683E0,3.6909027E1,1.1982349E1,3.633575E1,3.350257E0,2.8959563E0,3.0264626E0,2.2428486E0,6.611704E0,4.002739E0,5.371103E0,5.3739257E0,3.9521623E0,1.6856062E0,2.7647846E1,9.261181E0,5.099981E0,6.8823686E0,2.349351E1,1.2842242E1],"tree_param":{"num_deleted":"0","num_feature":"15","num_nodes":"43","size_leaf_vector":"0"}},{"base_weights":[-3.121169E-2,-7.2807705E-1,1.9259956E-1,-8.7994593E-1,-2.829684E-1,-9.468691E-2,3.6178058E-1,-1.030873E0,-5.837743E-1,-6.595606E-1,1.0212218E-1,-9.711874E-1,3.012254E-2,4.331299E-1,1.6956523E-1,-9.010327E-1,-2.654725E-1,-9.279627E-2,-8.4644145E-1,5.416592E-1,-3.5603592E-1,-4.424018E-1,2.0850924E-1,1.6383732E-2,5.32354E-1,8.2647276E-1,-4.309682E-2,6.034139E-1,-5.96304E-1,-9.116193E-1,3.2164782E-1,-8.2130975E-1,-6.3614525E-2,4.6192658E-1,-5.8654774E-2,-6.5105474E-1,1.845888E-1,5.840803E-1,-2.2144735E-1,1.7000732E-1,9.5779514E-1,-1.0461879E0,1.1693582E-1],"categories":[],"categories_nodes":[],"categories_segments":[],"categories_sizes":[],"default_left":[true,true,true,true,true,true,true,false,true,true,true,false,true,true,true,false,true,false,false,false,true,true,true,true,true,true,true,false,false,false,false,false,false,false,false,false,false,false,false,false,false,false,false],"id":18,"left_children":[1,3,5,7,9,11,13,-1,15,17,19,-1,21,23,25,-1,27,-1,-1,-1,29,31,33,35,37,39,41,-1,-1,-1,-1,-1,-1,-1,-1,-1,-1,-1,-1,-1,-1,-1,-1],"loss_changes":[2.3619871E1,2.2389774E0,5.6109004E0,6.036892E-1,1.6389818E0,4.768042E0,9.197531E-1,0E0,9.12961E-1,5.159788E-1,1.4462318E0,0E0,3.3702297E0,2.1486444E0,3.003954E0,0E0,2.4044871E0,0E0,0E0,0E0,1.6678038E0,1.5233727E0,1.984447E0,1.3623711E0,1.7711535E0,2.894168E-1,2.8516307E0,0E0,0E0,0E0,0E0,0E0,0E0,0E0,0E0,0E0,0E0,0E0,0E0,0E0,0E0,0E0,0E0],"parents":[2147483647,0,0,1,1,2,2,3,3,4,4,5,5,6,6,8,8,9,9,10,10,12,12,13,13,14,14,16,16,20,20,21,21,22,22,23,23,24,24,25,25,26,26],"right_children":[2,4,6,8,10,12,14,-1,16,18,20,-1,22,24,26,-1,28,-1,-1,-1,30,32,34,36,38,40,42,-1,-1,-1,-1,-1,-1,-1,-1,-1,-1,-1,-1,-1,-1,-1,-1],"split_conditions":[5E-1,5E-1,5E-1,5E-1,5E-1,1.6744762E1,5E-1,-1.030873E-1,2.4228947E1,5E-1,5E-1,-9.711874E-2,5E-1,5E-1,5E-1,-9.010327E-2,2.5624E1,-9.279627E-3,-8.4644146E-2,5.416592E-2,5E-1,5E-1,5E-1,5E-1,5.526571E1,2.1618668E1,5E-1,6.0341388E-2,-5.96304E-2,-9.116193E-2,3.2164782E-2,-8.2130976E-2,-6.3614524E-3,4.6192657E-2,-5.8654775E-3,-6.5105475E-2,1.845888E-2,5.840803E-2,-2.2144735E-2,1.7000733E-2,9.5779516E-2,-1.0461879E-1,1.1693582E-2],"split_indices":[8,3,5,0,7,10,12,0,10,9,11,0,2,4,0,0,10,0,0,0,2,0,11,9,10,10,6,0,0,0,0,0,0,0,0,0,0,0,0,0,0,0,0],"split_type":[0,0,0,0,0,0,0,0,0,0,0,0,0,0,0,0,0,0,0,0,0,0,0,0,0,0,0,0,0,0,0,0,0,0,0,0,0,0,0,0,0,0,0],"sum_hessian":[1.4954305E2,3.5805355E1,1.137377E2,2.5968204E1,9.837148E0,4.231792E1,7.141978E1,1.5558858E1,1.0409347E1,4.6131053E0,5.224043E0,4.429496E0,3.7888424E1,5.117174E1,2.0248035E1,4.296341E0,6.113006E0,1.5150075E0,3.0980978E0,2.573186E0,2.6508567E0,9.977978E0,2.7910446E1,1.0064683E1,4.110706E1,4.2459836E0,1.6002052E1,1.4585032E0,4.654503E0,1.2669656E0,1.3838911E0,4.404156E0,5.573821E0,1.3949604E1,1.3960842E1,1.4480829E0,8.6166E0,3.86781E1,2.4289587E0,1.0902967E0,3.1556869E0,1.4398257E0,1.4562226E1],"tree_param":{"num_deleted":"0","num_feature":"15","num_nodes":"43","size_leaf_vector":"0"}},{"base_weights":[-3.2214135E-2,-7.034378E-1,1.7602384E-1,-8.585737E-1,-2.6948038E-1,-2.1929555E-1,2.8883258E-1,-1.0164448E0,-5.5900645E-1,-7.397004E-1,3.4169648E-2,-3.147774E-2,-1.0107902E0,4.760816E-1,1.2088341E-1,-8.807299E-1,-2.4624202E-1,-8.567686E-1,-1.9629085E-1,-6.024248E-1,3.0381608E-1,-6.231315E-1,9.921067E-2,-2.9987037E-1,6.0492295E-1,-3.82442E-1,2.9546255E-1,2.8109884E-1,-8.131773E-1,5.202081E-1,-4.0519554E-2,-1.1229602E0,3.447196E-1,6.213345E-1,-1.4772789E-1,3.5331053E-1,-1.3662814E0,7.8583014E-1,6.433967E-2,-1.0115986E0,1.3590243E-1,4.8410103E-1,-5.1389664E-2],"categories":[],"categories_nodes":[],"categories_segments":[],"categories_sizes":[],"default_left":[true,true,true,true,true,true,true,false,true,true,true,true,false,true,true,false,true,false,false,false,true,true,true,true,true,true,true,false,false,false,false,false,false,false,false,false,false,false,false,false,false,false,false],"id":19,"left_children":[1,3,5,7,9,11,13,-1,15,17,19,21,-1,23,25,-1,27,-1,-1,-1,29,31,33,35,37,39,41,-1,-1,-1,-1,-1,-1,-1,-1,-1,-1,-1,-1,-1,-1,-1,-1],"loss_changes":[2.0566816E1,2.1135235E0,5.0770516E0,6.236191E-1,1.5430555E0,3.7631001E0,2.7067065E0,0E0,8.818693E-1,9.997463E-2,1.4558305E0,1.7369533E0,0E0,4.3024426E0,4.3024273E0,0E0,2.2988915E0,0E0,0E0,0E0,4.5871282E-1,2.349679E0,2.4908829E0,5.037086E0,3.439024E0,4.2838078E0,2.3779516E0,0E0,0E0,0E0,0E0,0E0,0E0,0E0,0E0,0E0,0E0,0E0,0E0,0E0,0E0,0E0,0E0],"parents":[2147483647,0,0,1,1,2,2,3,3,4,4,5,5,6,6,8,8,9,9,10,10,11,11,13,13,14,14,16,16,20,20,21,21,22,22,23,23,24,24,25,25,26,26],"right_children":[2,4,6,8,10,12,14,-1,16,18,20,22,-1,24,26,-1,28,-1,-1,-1,30,32,34,36,38,40,42,-1,-1,-1,-1,-1,-1,-1,-1,-1,-1,-1,-1,-1,-1,-1,-1],"split_conditions":[5E-1,5E-1,5E-1,5E-1,5E-1,3.2202972E1,5E-1,-1.0164448E-1,2.4228947E1,5E-1,2.0205761E1,1.2697342E1,-1.01079024E-1,1.7797169E1,5E-1,-8.807299E-2,3.1824076E1,-8.5676864E-2,-1.9629085E-2,-6.024248E-2,3.391362E1,5E-1,1.7380701E1,1.3280243E1,5E-1,3.090033E1,3.4721706E1,2.8109884E-2,-8.131773E-2,5.2020814E-2,-4.0519554E-3,-1.1229602E-1,3.447196E-2,6.213345E-2,-1.477279E-2,3.533105E-2,-1.3662814E-1,7.858302E-2,6.433967E-3,-1.0115986E-1,1.3590244E-2,4.8410103E-2,-5.1389667E-3],"split_indices":[8,3,3,0,1,10,11,0,10,6,10,10,0,10,5,0,10,0,0,0,10,13,10,10,12,10,10,0,0,0,0,0,0,0,0,0,0,0,0,0,0,0,0],"split_type":[0,0,0,0,0,0,0,0,0,0,0,0,0,0,0,0,0,0,0,0,0,0,0,0,0,0,0,0,0,0,0,0,0,0,0,0,0,0,0,0,0,0,0],"sum_hessian":[1.4525723E2,3.383078E1,1.1142645E2,2.4200754E1,9.630028E0,2.4528046E1,8.689841E1,1.4281433E1,9.919321E0,3.2151492E0,6.4148784E0,2.0664282E1,3.863763E0,4.0220875E1,4.6677532E1,3.9944744E0,5.924846E0,2.1708283E0,1.044321E0,1.5415003E0,4.873378E0,3.0569155E0,1.7607367E1,5.5383725E0,3.4682503E1,1.1714128E1,3.4963406E1,3.3308237E0,2.5940228E0,2.679028E0,2.1943498E0,1.9101782E0,1.1467373E0,5.166735E0,1.2440632E1,3.8493328E0,1.6890395E0,2.5646263E1,9.03624E0,4.861606E0,6.852521E0,2.2390465E1,1.257294E1],"tree_param":{"num_deleted":"0","num_feature":"15","num_nodes":"43","size_leaf_vector":"0"}},{"base_weights":[-3.4017283E-2,-6.8045497E-1,1.603263E-1,-8.3787084E-1,-2.5886747E-1,-2.0628382E-1,2.655424E-1,-1.0026389E0,-5.373801E-1,-4.2632526E-1,4.705344E-1,-3.004607E-2,-9.790829E-1,-6.894973E-2,3.5444915E-1,-8.60944E-1,-2.3431638E-1,-7.777932E-1,3.4286425E-2,-5.940098E-1,9.237396E-2,7.2733015E-2,-1.0164185E0,9.707117E-2,4.9938738E-1,2.5683096E-1,-7.9155654E-1,-1.3034448E-1,-1.0339966E0,-7.0225644E-1,4.3479624E-1,-1.0779722E0,3.287994E-1,5.7682836E-1,-1.3412622E-1,-3.535612E-1,5.8139104E-1,-1.2241699E0,3.3871728E-1,8.313172E-1,2.9721305E-1],"categories":[],"categories_nodes":[],"categories_segments":[],"categories_sizes":[],"default_left":[true,true,true,true,true,true,true,false,true,true,false,true,false,true,true,false,true,true,true,true,true,true,false,true,true,false,false,false,false,false,false,false,false,false,false,false,false,false,false,false,false],"id":20,"left_children":[1,3,5,7,9,11,13,-1,15,17,-1,19,-1,21,23,-1,25,27,29,31,33,35,-1,37,39,-1,-1,-1,-1,-1,-1,-1,-1,-1,-1,-1,-1,-1,-1,-1,-1],"loss_changes":[1.7975353E1,1.9772835E0,4.303611E0,6.3098526E-1,1.475287E0,3.3926387E0,2.5826654E0,0E0,8.3007884E-1,1.4856262E0,0E0,1.5386633E0,0E0,2.6111586E0,2.4927788E0,0E0,2.0663254E0,7.201359E-1,1.7384663E0,2.1264415E0,2.1099782E0,3.9731665E0,0E0,8.646535E0,2.661354E0,0E0,0E0,0E0,0E0,0E0,0E0,0E0,0E0,0E0,0E0,0E0,0E0,0E0,0E0,0E0,0E0],"parents":[2147483647,0,0,1,1,2,2,3,3,4,4,5,5,6,6,8,8,9,9,11,11,13,13,14,14,16,16,17,17,18,18,19,19,20,20,21,21,23,23,24,24],"right_children":[2,4,6,8,10,12,14,-1,16,18,-1,20,-1,22,24,-1,26,28,30,32,34,36,-1,38,40,-1,-1,-1,-1,-1,-1,-1,-1,-1,-1,-1,-1,-1,-1,-1,-1],"split_conditions":[5E-1,5E-1,5E-1,5E-1,5.3824646E1,3.2202972E1,5E-1,-1.0026389E-1,2.4228947E1,5E-1,4.705344E-2,1.2697342E1,-9.790829E-2,5.296776E1,2.3335629E1,-8.60944E-2,3.1824076E1,5E-1,5E-1,5E-1,1.7380701E1,3.0347313E1,-1.0164185E-1,5E-1,3.4762833E1,2.5683096E-2,-7.915565E-2,-1.3034448E-2,-1.0339966E-1,-7.022565E-2,4.3479625E-2,-1.0779722E-1,3.287994E-2,5.768284E-2,-1.3412622E-2,-3.535612E-2,5.8139104E-2,-1.2241699E-1,3.387173E-2,8.313172E-2,2.9721305E-2],"split_indices":[8,3,3,0,10,10,6,0,10,2,0,10,0,10,10,0,10,9,7,13,10,10,0,7,10,0,0,0,0,0,0,0,0,0,0,0,0,0,0,0,0],"split_type":[0,0,0,0,0,0,0,0,0,0,0,0,0,0,0,0,0,0,0,0,0,0,0,0,0,0,0,0,0,0,0,0,0,0,0,0,0,0,0,0,0],"sum_hessian":[1.4121216E2,3.206252E1,1.0914964E2,2.2626595E1,9.435926E0,2.4125898E1,8.502374E1,1.310439E1,9.522203E0,8.012022E0,1.4239048E0,2.0491636E1,3.6342628E0,1.7900715E1,6.712303E1,3.715052E0,5.807152E0,4.15384E0,3.8581815E0,2.967723E0,1.7523912E1,1.6375227E1,1.5254872E0,2.4783247E1,4.2339783E1,3.3731682E0,2.4339836E0,1.6054581E0,2.548382E0,1.0936106E0,2.7645707E0,1.8364595E0,1.1312635E0,5.0901155E0,1.2433797E1,9.074782E0,7.3004456E0,3.2032073E0,2.158004E1,1.4848929E1,2.7490852E1],"tree_param":{"num_deleted":"0","num_feature":"15","num_nodes":"41","size_leaf_vector":"0"}},{"base_weights":[-3.5623807E-2,-6.580841E-1,1.4600328E-1,-8.175242E-1,-2.4790795E-1,-1.00204006E-1,2.9236424E-1,-9.8930824E-1,-5.1669294E-1,-7.9347837E-1,2.4323731E-3,-5.9398663E-1,9.3838684E-2,3.628495E-1,1.09280005E-1,-8.4158736E-1,-2.2331078E-1,6.801789E-1,-2.696965E-1,1.153793E-1,-1.175368E0,-3.752828E-1,2.6686206E-1,-1.9270714E-2,4.5793048E-1,7.725943E-1,-9.575839E-2,5.303469E-1,-5.3895247E-1,4.4378012E-1,-5.758802E-1,5.4610497E-1,-8.292871E-1,-9.880134E-1,1.19935304E-1,8.149997E-1,1.00029096E-1,-1.7611879E-1,6.474968E-1,5.087738E-1,-2.2151382E-1,1.18093126E-1,9.1365796E-1,-9.9920195E-1,5.61868E-2],"categories":[],"categories_nodes":[],"categories_segments":[],"categories_sizes":[],"default_left":[true,true,true,true,true,true,true,false,true,false,true,true,true,true,true,false,true,false,true,true,false,true,true,true,true,true,true,false,false,false,false,false,false,false,false,false,false,false,false,false,false,false,false,false,false],"id":21,"left_children":[1,3,5,7,9,11,13,-1,15,-1,17,19,21,23,25,-1,27,-1,29,31,-1,33,35,37,39,41,43,-1,-1,-1,-1,-1,-1,-1,-1,-1,-1,-1,-1,-1,-1,-1,-1,-1,-1],"loss_changes":[1.57210245E1,1.8508072E0,3.9141102E0,6.3480663E-1,1.3983307E0,3.9782188E0,8.361697E-1,0E0,7.7987194E-1,0E0,1.6598908E0,4.9548507E0,2.555722E0,1.7735515E0,2.8343978E0,0E0,1.8788694E0,0E0,1.6597762E0,2.965036E0,0E0,2.7180347E0,1.9930142E0,1.2265087E0,1.457695E0,3.447554E-1,2.306569E0,0E0,0E0,0E0,0E0,0E0,0E0,0E0,0E0,0E0,0E0,0E0,0E0,0E0,0E0,0E0,0E0,0E0,0E0],"parents":[2147483647,0,0,1,1,2,2,3,3,4,4,5,5,6,6,8,8,10,10,11,11,12,12,13,13,14,14,16,16,18,18,19,19,21,21,22,22,23,23,24,24,25,25,26,26],"right_children":[2,4,6,8,10,12,14,-1,16,-1,18,20,22,24,26,-1,28,-1,30,32,-1,34,36,38,40,42,44,-1,-1,-1,-1,-1,-1,-1,-1,-1,-1,-1,-1,-1,-1,-1,-1,-1,-1],"split_conditions":[5E-1,5E-1,5E-1,5E-1,1.9347488E1,2.2234234E1,5E-1,-9.893083E-2,2.4228947E1,-7.934784E-2,2.1512905E1,5E-1,5E-1,5E-1,5E-1,-8.415874E-2,2.5624E1,6.801789E-2,5E-1,5E-1,-1.175368E-1,5E-1,2.4110336E1,5.934659E1,5.526571E1,2.1618668E1,5E-1,5.303469E-2,-5.3895246E-2,4.4378012E-2,-5.7588022E-2,5.46105E-2,-8.292871E-2,-9.880134E-2,1.199353E-2,8.149997E-2,1.000291E-2,-1.761188E-2,6.474968E-2,5.087738E-2,-2.2151383E-2,1.1809313E-2,9.13658E-2,-9.99202E-2,5.61868E-3],"split_indices":[8,3,5,0,10,10,12,0,10,0,10,11,2,4,0,0,10,0,9,1,0,0,10,10,10,10,6,0,0,0,0,0,0,0,0,0,0,0,0,0,0,0,0,0,0],"split_type":[0,0,0,0,0,0,0,0,0,0,0,0,0,0,0,0,0,0,0,0,0,0,0,0,0,0,0,0,0,0,0,0,0,0,0,0,0,0,0,0,0,0,0,0,0],"sum_hessian":[1.3720576E2,3.0399466E1,1.068063E2,2.1175287E1,9.224178E0,3.9938095E1,6.68682E1,1.20218525E1,9.153434E0,2.2188993E0,7.0052786E0,1.0685492E1,2.9252605E1,4.757176E1,1.9296442E1,3.456784E0,5.69665E0,1.5773529E0,5.427926E0,5.174016E0,5.5114756E0,7.5670233E0,2.1685581E1,9.637402E0,3.7934357E1,3.9027412E0,1.5393701E1,1.480778E0,4.215872E0,1.4949548E0,3.932971E0,3.8434715E0,1.3305444E0,2.937439E0,4.6295843E0,4.1536016E0,1.753198E1,8.397796E0,1.2396065E0,3.5527035E1,2.4073215E0,1.0177574E0,2.8849838E0,1.4134526E0,1.39802475E1],"tree_param":{"num_deleted":"0","num_feature":"15","num_nodes":"45","size_leaf_vector":"0"}},{"base_weights":[-3.5302747E-2,-6.3318825E-1,1.3350874E-1,-7.971082E-1,-2.3038183E-1,-1.9945692E-1,2.2969534E-1,-9.7632456E-1,-4.9436164E-1,-4.0296856E-1,4.7601762E-1,-2.2142539E-2,-9.0370303E-1,4.072129E-1,7.405145E-2,-8.22592E-1,-2.068251E-1,-7.2995245E-1,2.8997706E-2,-2.7607772E-1,2.42225E-1,-5.3487998E-2,6.216064E-1,-3.7315017E-1,2.3042451E-1,2.4369994E-1,-7.564119E-1,-1.2457157E-1,-9.7715193E-1,-6.588724E-1,3.980772E-1,3.0522177E-1,-1.1036717E0,5.7989526E-1,-1.3734843E-1,2.2393449E-1,-1.5093883E0,7.766669E-1,1.9144829E-1,-9.374549E-1,8.842717E-2,4.196977E-1,-1.0398263E-1],"categories":[],"categories_nodes":[],"categories_segments":[],"categories_sizes":[],"default_left":[true,true,true,true,true,true,true,false,true,true,false,true,false,true,true,false,true,true,true,true,true,true,true,true,true,false,false,false,false,false,false,false,false,false,false,false,false,false,false,false,false,false,false],"id":22,"left_children":[1,3,5,7,9,11,13,-1,15,17,-1,19,-1,21,23,-1,25,27,29,31,33,35,37,39,41,-1,-1,-1,-1,-1,-1,-1,-1,-1,-1,-1,-1,-1,-1,-1,-1,-1,-1],"loss_changes":[1.3669268E1,1.7846174E0,3.4338121E0,6.448517E-1,1.4144578E0,3.0075684E0,2.250413E0,0E0,7.503395E-1,1.2360319E0,0E0,1.4359518E0,0E0,3.8200006E0,3.2469969E0,0E0,1.8023365E0,6.1658883E-1,1.4472476E0,5.5659485E0,1.428554E0,5.627542E0,1.6016932E0,3.232689E0,2.2025871E0,0E0,0E0,0E0,0E0,0E0,0E0,0E0,0E0,0E0,0E0,0E0,0E0,0E0,0E0,0E0,0E0,0E0,0E0],"parents":[2147483647,0,0,1,1,2,2,3,3,4,4,5,5,6,6,8,8,9,9,11,11,13,13,14,14,16,16,17,17,18,18,19,19,20,20,21,21,22,22,23,23,24,24],"right_children":[2,4,6,8,10,12,14,-1,16,18,-1,20,-1,22,24,-1,26,28,30,32,34,36,38,40,42,-1,-1,-1,-1,-1,-1,-1,-1,-1,-1,-1,-1,-1,-1,-1,-1,-1,-1],"split_conditions":[5E-1,5E-1,5E-1,5E-1,5.3824646E1,3.1626436E1,5E-1,-9.763246E-2,2.4228947E1,5E-1,4.7601763E-2,5E-1,-9.0370305E-2,2.334983E1,5E-1,-8.22592E-2,3.1824076E1,5E-1,5E-1,5E-1,1.7380701E1,2.060226E1,5E-1,3.090033E1,3.4721706E1,2.4369994E-2,-7.564119E-2,-1.24571575E-2,-9.771519E-2,-6.588724E-2,3.980772E-2,3.0522177E-2,-1.1036717E-1,5.7989527E-2,-1.3734843E-2,2.2393448E-2,-1.5093884E-1,7.766669E-2,1.914483E-2,-9.374549E-2,8.842717E-3,4.1969772E-2,-1.0398263E-2],"split_indices":[8,3,3,0,10,10,11,0,10,2,0,4,0,10,5,0,10,9,7,0,10,10,12,10,10,0,0,0,0,0,0,0,0,0,0,0,0,0,0,0,0,0,0],"split_type":[0,0,0,0,0,0,0,0,0,0,0,0,0,0,0,0,0,0,0,0,0,0,0,0,0,0,0,0,0,0,0,0,0,0,0,0,0,0,0,0,0,0,0],"sum_hessian":[1.3359566E2,2.8809433E1,1.04786224E2,1.978084E1,9.028594E0,2.324527E1,8.1540955E1,1.1027824E1,8.753015E0,7.6010575E0,1.4275361E0,1.9393768E1,3.851502E0,3.73386E1,4.4202354E1,3.218354E0,5.5346603E0,3.9336104E0,3.667447E0,9.869469E0,9.5243E0,1.2096172E1,2.5242428E1,1.1092712E1,3.3109642E1,3.3472888E0,2.1873717E0,1.5765758E0,2.3570347E0,1.0064687E0,2.6609786E0,6.1681633E0,3.7013056E0,4.7610726E0,4.7632265E0,1.0870905E1,1.2252676E0,1.796205E1,7.2803783E0,4.5270967E0,6.5656157E0,2.0979994E1,1.2129647E1],"tree_param":{"num_deleted":"0","num_feature":"15","num_nodes":"43","size_leaf_vector":"0"}},{"base_weights":[-3.699092E-2,-6.1212003E-1,1.2075218E-1,-7.7733296E-1,-2.2120439E-1,-1.546148E-1,2.253473E-1,-9.6357584E-1,-4.7555438E-1,-6.850228E-1,6.380995E-2,1.7831165E-1,-4.2460558E-1,2.7407253E-1,-5.531962E-1,-7.5764894E-1,-1.570842E-1,-3.3709034E-1,4.3693832E-1,-6.1790127E-1,4.0984765E-1,1.8753675E-1,-1.2244858E0,5.022307E-2,4.0356833E-1,-9.338755E-2,-8.244036E-1,-8.6817145E-1,-2.4521516E-1,3.7273648E-1,-7.365014E-1,-8.030679E-1,2.0197833E-1,6.841416E-1,1.0380782E-1,-2.2697578E-1,-7.561813E-1,9.073154E-1,-8.126972E-2,-7.228721E-1,4.4355634E-1,2.973446E-1,-1.0785351E0,5.17949E-1,-1.7991406E-1],"categories":[],"categories_nodes":[],"categories_segments":[],"categories_sizes":[],"default_left":[true,true,true,true,true,true,true,false,true,false,true,true,true,true,true,true,true,true,true,true,true,true,false,true,true,false,false,false,false,false,false,false,false,false,false,false,false,false,false,false,false,false,false,false,false],"id":23,"left_children":[1,3,5,7,9,11,13,-1,15,-1,17,19,21,23,25,27,29,31,33,35,37,39,-1,41,43,-1,-1,-1,-1,-1,-1,-1,-1,-1,-1,-1,-1,-1,-1,-1,-1,-1,-1,-1,-1],"loss_changes":[1.1967384E1,1.6610851E0,3.022046E0,6.4070606E-1,1.343108E0,2.6953373E0,3.0183988E0,0E0,7.2872996E-1,0E0,1.1948483E0,2.788994E0,8.254149E0,2.0607228E0,5.193901E-1,5.5696964E-2,2.0224864E0,1.151999E0,2.6354277E-1,1.7433167E-2,2.8240833E0,2.686646E0,0E0,7.978109E0,3.1189594E0,0E0,0E0,0E0,0E0,0E0,0E0,0E0,0E0,0E0,0E0,0E0,0E0,0E0,0E0,0E0,0E0,0E0,0E0,0E0,0E0],"parents":[2147483647,0,0,1,1,2,2,3,3,4,4,5,5,6,6,8,8,10,10,11,11,12,12,13,13,14,14,15,15,16,16,17,17,18,18,19,19,20,20,21,21,23,23,24,24],"right_children":[2,4,6,8,10,12,14,-1,16,-1,18,20,22,24,26,28,30,32,34,36,38,40,-1,42,44,-1,-1,-1,-1,-1,-1,-1,-1,-1,-1,-1,-1,-1,-1,-1,-1,-1,-1,-1,-1],"split_conditions":[5E-1,5E-1,5E-1,5E-1,5E-1,5E-1,5E-1,-9.6357584E-2,2.5132626E1,-6.850228E-2,2.6990498E1,1.9525845E1,5E-1,2.3335629E1,2.3991257E1,5E-1,3.1824076E1,5E-1,3.949396E1,1.3783672E1,2.3639874E1,5E-1,-1.2244858E-1,2.060226E1,5.526571E1,-9.338755E-3,-8.244036E-2,-8.6817145E-2,-2.4521517E-2,3.727365E-2,-7.3650144E-2,-8.030679E-2,2.0197833E-2,6.841416E-2,1.0380782E-2,-2.269758E-2,-7.561813E-2,9.073154E-2,-8.126972E-3,-7.228721E-2,4.4355635E-2,2.973446E-2,-1.0785351E-1,5.1794898E-2,-1.7991407E-2],"split_indices":[8,3,4,0,1,0,14,0,10,0,10,10,11,10,10,2,10,2,10,10,10,3,0,10,10,0,0,0,0,0,0,0,0,0,0,0,0,0,0,0,0,0,0,0,0],"split_type":[0,0,0,0,0,0,0,0,0,0,0,0,0,0,0,0,0,0,0,0,0,0,0,0,0,0,0,0,0,0,0,0,0,0,0,0,0,0,0,0,0,0,0,0,0],"sum_hessian":[1.3009703E2,2.7382034E1,1.02715004E2,1.8552633E1,8.829403E0,2.8143513E1,7.457149E1,1.0116337E1,8.4362955E0,2.8263962E0,6.0030065E0,1.2754931E1,1.5388582E1,7.078911E1,3.782377E0,3.7423606E0,4.6939354E0,2.940369E0,3.0626373E0,2.497556E0,1.0257376E1,9.150962E0,6.23762E0,2.6451782E1,4.433733E1,1.9020151E0,1.8803619E0,2.507358E0,1.2350025E0,2.6382327E0,2.0557027E0,1.3144287E0,1.6259403E0,1.1532102E0,1.9094272E0,1.3428013E0,1.1547548E0,4.674739E0,5.582637E0,1.6083052E0,7.542657E0,2.230506E1,4.146723E0,3.716429E1,7.17304E0],"tree_param":{"num_deleted":"0","num_feature":"15","num_nodes":"45","size_leaf_vector":"0"}},{"base_weights":[-3.8942892E-2,-5.8911306E-1,1.07844286E-1,-7.565741E-1,-2.081508E-1,-1.0966397E-1,2.367796E-1,-9.5096457E-1,-4.5681933E-1,-3.743293E-1,4.5067647E-1,-8.9495665E-1,-2.0707403E-4,-2.2767448E-1,2.633647E-1,-7.889303E-1,-1.8499523E-1,-6.829839E-1,2.5247583E-2,-9.9082667E-1,-2.7529448E-1,-3.1020156E-1,1.8392609E-1,1.4054702E-1,-6.449802E-1,9.4227904E-1,2.1565229E-1,4.9136156E-1,-4.9198535E-1,-1.0333357E-1,-9.2724144E-1,-4.5753425E-1,3.0098918E-1,2.8285432E-1,-7.55396E-1,-3.0263975E-1,4.50621E-1,2.9965165E-1,-2.1484157E-2],"categories":[],"categories_nodes":[],"categories_segments":[],"categories_sizes":[],"default_left":[true,true,true,true,true,true,true,false,true,true,false,true,true,true,true,false,true,true,true,false,false,true,true,false,false,false,true,false,false,false,false,false,false,false,false,false,false,false,false],"id":24,"left_children":[1,3,5,7,9,11,13,-1,15,17,-1,19,21,23,25,-1,27,29,31,-1,-1,33,35,-1,-1,-1,37,-1,-1,-1,-1,-1,-1,-1,-1,-1,-1,-1,-1],"loss_changes":[1.0410793E1,1.5739336E0,2.8861446E0,6.419964E-1,1.2270352E0,3.3211298E0,8.5449386E-1,0E0,6.838243E-1,1.0366751E0,0E0,8.028746E-3,2.0499072E0,7.0838827E-1,1.7833452E0,0E0,1.5624766E0,5.6950593E-1,7.4564207E-1,0E0,0E0,3.7469497E0,3.0600774E0,0E0,0E0,0E0,1.17365E0,0E0,0E0,0E0,0E0,0E0,0E0,0E0,0E0,0E0,0E0,0E0,0E0],"parents":[2147483647,0,0,1,1,2,2,3,3,4,4,5,5,6,6,8,8,9,9,11,11,12,12,13,13,14,14,16,16,17,17,18,18,21,21,22,22,26,26],"right_children":[2,4,6,8,10,12,14,-1,16,18,-1,20,22,24,26,-1,28,30,32,-1,-1,34,36,-1,-1,-1,38,-1,-1,-1,-1,-1,-1,-1,-1,-1,-1,-1,-1],"split_conditions":[5E-1,5E-1,5E-1,5E-1,5.3824646E1,1.6744762E1,8.926012E0,-9.509646E-2,2.4228947E1,5E-1,4.506765E-2,1.5475478E1,5E-1,7.9768705E0,1.0137188E1,-7.889303E-2,2.5624E1,5E-1,1.991539E1,-9.908267E-2,-2.7529448E-2,2.3639874E1,3.093783E1,1.4054703E-2,-6.449802E-2,9.42279E-2,5E-1,4.9136158E-2,-4.9198534E-2,-1.0333357E-2,-9.2724144E-2,-4.5753427E-2,3.0098919E-2,2.8285433E-2,-7.5539604E-2,-3.0263975E-2,4.5062102E-2,2.9965166E-2,-2.1484157E-3],"split_indices":[8,3,5,0,10,10,10,0,10,2,0,10,4,10,10,0,10,9,10,0,0,10,10,0,0,0,13,0,0,0,0,0,0,0,0,0,0,0,0],"split_type":[0,0,0,0,0,0,0,0,0,0,0,0,0,0,0,0,0,0,0,0,0,0,0,0,0,0,0,0,0,0,0,0,0,0,0,0,0,0,0],"sum_hessian":[1.27126884E2,2.6139719E1,1.0098716E2,1.7473064E1,8.666655E0,3.7639847E1,6.3347317E1,9.281531E0,8.191533E0,7.2657995E0,1.4008554E0,3.7266755E0,3.3913174E1,3.020138E0,6.0327175E1,2.8306854E0,5.3608484E0,3.6991277E0,3.5666718E0,2.7086349E0,1.0180408E0,1.2382369E1,2.1530802E1,1.956749E0,1.0633892E0,2.730135E0,5.7597042E1,1.4861042E0,3.874744E0,1.5185329E0,2.180595E0,1.0569049E0,2.5097668E0,5.4658327E0,6.916537E0,7.575346E0,1.3955457E1,4.233674E1,1.5260302E1],"tree_param":{"num_deleted":"0","num_feature":"15","num_nodes":"39","size_leaf_vector":"0"}},{"base_weights":[-3.8803086E-2,-5.6783676E-1,9.763115E-2,-7.365049E-1,-1.991144E-1,-3.4811747E-1,1.540516E-1,-9.38406E-1,-4.365743E-1,-6.450081E-1,6.9371164E-2,-9.4279176E-1,-2.239374E-2,-6.450591E-1,1.8945274E-1,-7.2382814E-1,-1.2712052E-1,-3.0934408E-1,4.1270056E-1,-6.398635E-1,3.666028E-1,-1.6469091E0,2.9136056E-1,3.5581306E-1,3.754885E-2,-8.4024346E-1,-2.1235238E-1,3.6251938E-1,-7.0419693E-1,-7.51552E-1,1.867264E-1,6.5676355E-1,8.712195E-2,2.4204293E-2,-9.0416497E-1,6.927966E-1,-1.0438133E-1,4.9395534E-1,-7.130883E-2,-3.4663647E-1,2.1178278E-1],"categories":[],"categories_nodes":[],"categories_segments":[],"categories_sizes":[],"default_left":[true,true,true,true,true,true,true,false,true,false,true,false,true,true,true,true,true,true,true,true,true,false,false,true,true,false,false,false,false,false,false,false,false,false,false,false,false,false,false,false,false],"id":25,"left_children":[1,3,5,7,9,11,13,-1,15,-1,17,-1,19,21,23,25,27,29,31,33,35,-1,-1,37,39,-1,-1,-1,-1,-1,-1,-1,-1,-1,-1,-1,-1,-1,-1,-1,-1],"loss_changes":[9.111706E0,1.4622974E0,2.5836525E0,6.4280224E-1,1.1809027E0,2.2276497E0,2.6679885E0,0E0,6.957941E-1,0E0,1.0152805E0,0E0,2.2823024E0,4.2742414E0,2.1838322E0,8.255768E-2,1.8035557E0,9.7777927E-1,2.6134127E-1,6.641365E-1,9.735298E-1,0E0,0E0,2.476812E0,3.190427E0,0E0,0E0,0E0,0E0,0E0,0E0,0E0,0E0,0E0,0E0,0E0,0E0,0E0,0E0,0E0,0E0],"parents":[2147483647,0,0,1,1,2,2,3,3,4,4,5,5,6,6,8,8,10,10,12,12,13,13,14,14,15,15,16,16,17,17,18,18,19,19,20,20,23,23,24,24],"right_children":[2,4,6,8,10,12,14,-1,16,-1,18,-1,20,22,24,26,28,30,32,34,36,-1,-1,38,40,-1,-1,-1,-1,-1,-1,-1,-1,-1,-1,-1,-1,-1,-1,-1,-1],"split_conditions":[5E-1,5E-1,5E-1,5E-1,5E-1,5E-1,8.926012E0,-9.38406E-2,2.5132626E1,-6.450081E-2,2.6990498E1,-9.427918E-2,2.3037556E1,5E-1,5E-1,5E-1,3.1824076E1,5E-1,3.949396E1,1.3746179E1,5E-1,-1.6469091E-1,2.9136056E-2,5E-1,5E-1,-8.402435E-2,-2.1235239E-2,3.625194E-2,-7.041969E-2,-7.51552E-2,1.8672641E-2,6.5676354E-2,8.712195E-3,2.4204294E-3,-9.04165E-2,6.927966E-2,-1.0438133E-2,4.9395535E-2,-7.130883E-3,-3.4663647E-2,2.117828E-2],"split_indices":[8,3,9,0,1,11,10,0,10,0,10,0,10,13,11,2,10,2,10,10,0,0,0,13,5,0,0,0,0,0,0,0,0,0,0,0,0,0,0,0,0],"split_type":[0,0,0,0,0,0,0,0,0,0,0,0,0,0,0,0,0,0,0,0,0,0,0,0,0,0,0,0,0,0,0,0,0,0,0,0,0,0,0,0,0],"sum_hessian":[1.2447078E2,2.487073E1,9.9600044E1,1.638029E1,8.49044E0,1.0609538E1,8.899051E1,8.517745E0,7.8625445E0,2.6639044E0,5.8265357E0,3.0842204E0,7.5253177E0,3.0445435E0,8.594597E1,3.3830972E0,4.4794474E0,2.817563E0,3.0089726E0,2.6592603E0,4.866058E0,1.1043257E0,1.9402179E0,4.038034E1,4.5565624E1,2.2322416E0,1.1508554E0,2.624447E0,1.8550005E0,1.2173662E0,1.600197E0,1.1383862E0,1.8705864E0,1.0156989E0,1.6435612E0,2.5966895E0,2.2693682E0,3.0393744E1,9.986598E0,1.3908323E1,3.1657303E1],"tree_param":{"num_deleted":"0","num_feature":"15","num_nodes":"41","size_leaf_vector":"0"}},{"base_weights":[-3.997619E-2,-4.211661E-1,1.299327E-1,-6.715588E-1,-9.971956E-2,-2.1666473E-1,2.4557912E-1,-7.8086764E-1,1.1166011E-1,1.7100365E-1,-1.0289998E0,-9.7431935E-2,-1.0126889E0,-8.459095E-2,3.653895E-1,-9.9111533E-1,-2.603591E-1,6.1111474E-1,-4.872277E-1,-5.7365197E-1,3.83811E-1,-3.0227488E-1,5.817738E-1,-9.471988E-1,8.9223556E-2,5.3418666E-1,1.838815E-1,1.2179754E0,-8.8201904E-1,-9.9725854E-1,2.260821E-1,-6.4066455E-2,5.109485E-1,-3.606795E-2,-1.1427753E0,9.4204956E-1,-1.541425E-1,3.8029444E-1,-6.923985E-1,1.0180459E0,3.6794943E-1,5.499244E-1,-1.7750742E-1],"categories":[],"categories_nodes":[],"categories_segments":[],"categories_sizes":[],"default_left":[true,true,true,true,true,true,true,true,true,true,false,true,false,true,true,false,true,false,false,true,true,true,true,false,true,true,true,false,false,false,false,false,false,false,false,false,false,false,false,false,false,false,false],"id":26,"left_children":[1,3,5,7,9,11,13,15,17,19,-1,21,-1,23,25,-1,27,-1,-1,29,31,33,35,-1,37,39,41,-1,-1,-1,-1,-1,-1,-1,-1,-1,-1,-1,-1,-1,-1,-1,-1],"loss_changes":[8.030723E0,3.0079474E0,3.4981046E0,1.9108152E0,4.6798663E0,1.9925616E0,2.5986562E0,1.8012285E0,1.3397664E0,2.5530252E0,0E0,2.9959524E0,0E0,2.7975764E0,1.3667674E0,0E0,7.2962646E0,0E0,0E0,1.4697179E0,7.187964E-1,3.5903945E0,1.4810952E0,0E0,3.897596E0,1.576025E0,3.3472362E0,0E0,0E0,0E0,0E0,0E0,0E0,0E0,0E0,0E0,0E0,0E0,0E0,0E0,0E0,0E0,0E0],"parents":[2147483647,0,0,1,1,2,2,3,3,4,4,5,5,6,6,7,7,8,8,9,9,11,11,13,13,14,14,16,16,19,19,20,20,21,21,22,22,24,24,25,25,26,26],"right_children":[2,4,6,8,10,12,14,16,18,20,-1,22,-1,24,26,-1,28,-1,-1,30,32,34,36,-1,38,40,42,-1,-1,-1,-1,-1,-1,-1,-1,-1,-1,-1,-1,-1,-1,-1,-1],"split_conditions":[5E-1,5E-1,5E-1,5E-1,2.8582464E1,5.296776E1,1.92653E1,3.143459E1,5E-1,1.46741295E1,-1.0289998E-1,4.2850983E1,-1.0126889E-1,5E-1,5E-1,-9.9111535E-2,3.1715881E1,6.1111476E-2,-4.872277E-2,5E-1,5E-1,5E-1,4.8115623E1,-9.471988E-2,1.7345705E1,5E-1,3.4721706E1,1.2179754E-1,-8.82019E-2,-9.972586E-2,2.2608211E-2,-6.4066458E-3,5.109485E-2,-3.606795E-3,-1.14277534E-1,9.4204955E-2,-1.541425E-2,3.8029443E-2,-6.923985E-2,1.0180459E-1,3.6794942E-2,5.4992437E-2,-1.7750742E-2],"split_indices":[3,2,6,5,10,10,10,10,0,10,0,10,0,7,11,0,10,0,0,13,9,12,10,0,10,0,10,0,0,0,0,0,0,0,0,0,0,0,0,0,0,0,0],"split_type":[0,0,0,0,0,0,0,0,0,0,0,0,0,0,0,0,0,0,0,0,0,0,0,0,0,0,0,0,0,0,0,0,0,0,0,0,0,0,0,0,0,0,0],"sum_hessian":[1.2214806E2,3.7203465E1,8.4944595E1,2.0300833E1,1.6902634E1,2.1033316E1,6.391128E1,1.7817202E1,2.483631E0,1.372126E1,3.181373E0,1.9269434E1,1.7638816E0,1.7095085E1,4.68162E1,1.2046971E1,5.7702312E0,1.3431051E0,1.1405257E0,2.6728346E0,1.1048426E1,1.5230881E1,4.038552E0,2.1207466E0,1.4974338E1,2.3250685E1,2.3565514E1,1.4241972E0,4.346034E0,1.5858482E0,1.0869864E0,2.552525E0,8.4959E0,1.2359302E1,2.8715794E0,2.5231922E0,1.5153599E0,1.1285243E1,3.6890953E0,4.6351914E0,1.8615492E1,1.14481945E1,1.211732E1],"tree_param":{"num_deleted":"0","num_feature":"15","num_nodes":"43","size_leaf_vector":"0"}},{"base_weights":[-3.951638E-2,-5.2892023E-1,7.9886876E-2,-9.126554E-1,-3.4964907E-1,-1.0818115E-1,1.9001517E-1,5.186205E-1,-4.6635917E-1,-5.461269E-1,6.1933067E-2,2.6016825E-1,1.7646205E-2,-8.3947605E-1,-1.4621845E-1,5.3313218E-2,-1.0960035E0,5.9219813E-1,-5.3448975E-2,-8.430342E-2,3.5074094E-1,6.963838E-1,-1.7787114E-1,-9.3446517E-1,-1.3602002E-1,1.6293909E-1,-5.599357E-1,4.6937948E-1,-7.4041855E-1,9.165393E-1,-7.3577665E-2,-7.023822E-1,2.3375723E-1,3.8860002E-1,-2.8325486E-1,-1.2550278E-1,4.219258E-1,1.176921E-1,8.393755E-1,-9.391452E-1,-3.819908E-2],"categories":[],"categories_nodes":[],"categories_segments":[],"categories_sizes":[],"default_left":[true,true,true,false,true,true,true,false,true,true,true,true,true,true,true,true,false,true,true,true,true,true,true,false,false,false,false,false,false,false,false,false,false,false,false,false,false,false,false,false,false],"id":27,"left_children":[1,3,5,-1,7,9,11,-1,13,15,17,19,21,23,25,27,-1,29,31,33,35,37,39,-1,-1,-1,-1,-1,-1,-1,-1,-1,-1,-1,-1,-1,-1,-1,-1,-1,-1],"loss_changes":[7.0601363E0,1.3102384E0,2.038062E0,0E0,2.0420191E0,2.761443E0,7.426777E-1,0E0,1.8106575E0,3.4682035E0,1.6999516E0,1.3976412E0,2.63844E0,3.58253E-1,1.3603351E0,2.2969303E0,0E0,1.1375555E0,4.508962E0,1.044824E0,1.2365742E0,2.687044E-1,1.6130184E0,0E0,0E0,0E0,0E0,0E0,0E0,0E0,0E0,0E0,0E0,0E0,0E0,0E0,0E0,0E0,0E0,0E0,0E0],"parents":[2147483647,0,0,1,1,2,2,4,4,5,5,6,6,8,8,9,9,10,10,11,11,12,12,13,13,14,14,15,15,17,17,18,18,19,19,20,20,21,21,22,22],"right_children":[2,4,6,-1,8,10,12,-1,14,16,18,20,22,24,26,28,-1,30,32,34,36,38,40,-1,-1,-1,-1,-1,-1,-1,-1,-1,-1,-1,-1,-1,-1,-1,-1,-1,-1],"split_conditions":[5E-1,1.9652431E1,5E-1,-9.1265544E-2,2.067038E1,2.2234234E1,5E-1,5.186205E-2,5E-1,5E-1,2.3724756E1,5E-1,5E-1,5.5742172E1,3.1829239E1,5E-1,-1.0960036E-1,5E-1,5E-1,1.3313387E1,1.3580485E1,2.514711E1,5E-1,-9.3446516E-2,-1.36020025E-2,1.629391E-2,-5.599357E-2,4.693795E-2,-7.404186E-2,9.1653936E-2,-7.3577664E-3,-7.0238225E-2,2.3375724E-2,3.8860004E-2,-2.8325487E-2,-1.2550279E-2,4.2192582E-2,1.176921E-2,8.393755E-2,-9.391452E-2,-3.8199078E-3],"split_indices":[8,10,5,0,10,10,12,0,0,1,10,4,0,10,10,11,0,0,4,10,10,10,6,0,0,0,0,0,0,0,0,0,0,0,0,0,0,0,0,0,0],"split_type":[0,0,0,0,0,0,0,0,0,0,0,0,0,0,0,0,0,0,0,0,0,0,0,0,0,0,0,0,0,0,0,0,0,0,0,0,0,0,0,0,0],"sum_hessian":[1.19094345E2,2.2684912E1,9.640943E1,5.9206543E0,1.6764257E1,3.5611954E1,6.079748E1,1.5783552E0,1.5185903E1,9.344616E0,2.6267338E1,4.284888E1,1.7948599E1,6.2636027E0,8.922299E0,4.9028683E0,4.441747E0,3.9556642E0,2.2311672E1,8.935197E0,3.3913685E1,3.441097E0,1.4507503E1,5.229113E0,1.0344896E0,5.453347E0,3.4689522E0,3.4848087E0,1.4180597E0,2.4066064E0,1.5490577E0,6.4016905E0,1.5909983E1,2.3636377E0,6.571559E0,4.3107424E0,2.9602942E1,1.0430228E0,2.3980744E0,1.3617014E0,1.3145802E1],"tree_param":{"num_deleted":"0","num_feature":"15","num_nodes":"41","size_leaf_vector":"0"}},{"base_weights":[-3.8747177E-2,-3.944316E-1,1.1313789E-1,-2.4772358E-1,-9.588154E-1,-1.9805317E-1,2.1687523E-1,-3.2847247E-1,8.6103547E-1,-8.117454E-2,-9.752486E-1,1.1030142E-1,5.794587E-1,-7.3356265E-1,7.354552E-2,-2.7103227E-1,5.5484974E-1,2.0057537E-1,-1.0332355E0,7.9685843E-1,2.2205402E-1,-9.1839254E-1,2.0243186E-1,-5.287394E-1,2.3972508E-1,-2.4653982E-2,-1.0696893E0,9.111604E-1,-1.467008E-1,-9.577996E-3,4.2315033E-1,-7.171953E-2,-1.443758E0,8.8068646E-1,1.0604002E-1,-1.9542834E-1,6.279742E-1],"categories":[],"categories_nodes":[],"categories_segments":[],"categories_sizes":[],"default_left":[true,true,true,true,false,true,true,true,false,true,false,true,true,true,true,true,true,true,true,true,true,false,false,false,false,false,false,false,false,false,false,false,false,false,false,false,false],"id":28,"left_children":[1,3,5,7,-1,9,11,13,-1,15,-1,17,19,21,23,25,27,29,31,33,35,-1,-1,-1,-1,-1,-1,-1,-1,-1,-1,-1,-1,-1,-1,-1,-1],"loss_changes":[6.3931327E0,2.6925888E0,2.726457E0,2.918201E0,0E0,1.856163E0,2.3636165E0,4.6400633E0,0E0,2.5184927E0,0E0,5.3467155E0,9.1359854E-1,2.6283245E0,1.6323632E0,3.0776162E0,1.3426343E0,2.2015657E0,1.3984718E0,3.8961983E-1,1.2572385E0,0E0,0E0,0E0,0E0,0E0,0E0,0E0,0E0,0E0,0E0,0E0,0E0,0E0,0E0,0E0,0E0],"parents":[2147483647,0,0,1,1,2,2,3,3,5,5,6,6,7,7,9,9,11,11,12,12,13,13,14,14,15,15,16,16,17,17,18,18,19,19,20,20],"right_children":[2,4,6,8,-1,10,12,14,-1,16,-1,18,20,22,24,26,28,30,32,34,36,-1,-1,-1,-1,-1,-1,-1,-1,-1,-1,-1,-1,-1,-1,-1,-1],"split_conditions":[5E-1,3.1715881E1,5E-1,3.1573673E1,-9.5881544E-2,5.296776E1,4.7610558E1,5E-1,8.610355E-2,4.2850983E1,-9.752486E-2,4.416513E1,5E-1,5E-1,1.46741295E1,5E-1,4.8115623E1,2.3335629E1,5E-1,7.879538E1,5E-1,-9.1839254E-2,2.0243187E-2,-5.287394E-2,2.397251E-2,-2.4653983E-3,-1.0696893E-1,9.111604E-2,-1.46700805E-2,-9.577996E-4,4.2315032E-2,-7.1719526E-3,-1.443758E-1,8.806865E-2,1.06040025E-2,-1.9542834E-2,6.279742E-2],"split_indices":[3,10,6,10,0,10,10,2,0,10,0,10,11,5,10,12,10,10,4,10,13,0,0,0,0,0,0,0,0,0,0,0,0,0,0,0,0],"split_type":[0,0,0,0,0,0,0,0,0,0,0,0,0,0,0,0,0,0,0,0,0,0,0,0,0,0,0,0,0,0,0,0,0,0,0,0,0],"sum_hessian":[1.1651457E2,3.4387955E1,8.212661E1,2.8435305E1,5.952651E0,2.0305384E1,6.1821228E1,2.7160969E1,1.2743361E0,1.861101E1,1.6943736E0,4.878586E1,1.3035371E1,1.31180105E1,1.4042957E1,1.4774564E1,3.8364465E0,4.598062E1,2.8052356E0,7.3406687E0,5.6947026E0,1.0970486E1,2.1475248E0,2.5649755E0,1.14779825E1,1.2079133E1,2.6954312E0,2.346103E0,1.4903437E0,2.4142475E1,2.1838148E1,1.1908222E0,1.6144135E0,6.3011985E0,1.03947E0,3.0630054E0,2.6316972E0],"tree_param":{"num_deleted":"0","num_feature":"15","num_nodes":"37","size_leaf_vector":"0"}},{"base_weights":[-3.757688E-2,-3.7266573E-1,1.02587506E-1,-2.3078619E-1,-9.3988204E-1,-1.8706638E-1,1.9927594E-1,-3.090278E-1,8.142416E-1,-7.566377E-2,-9.351223E-1,9.839336E-2,5.512179E-1,-7.0487034E-1,6.444885E-2,-2.5314003E-1,5.2869236E-1,1.8395272E-1,-9.3605745E-1,7.6721376E-1,2.0896243E-1,-8.923344E-1,1.8882884E-1,-4.9234185E-1,2.1822043E-1,-2.2370217E-2,-1.0268167E0,8.810032E-1,-1.3741376E-1,-2.0761107E-1,2.9464272E-1,-6.771622E-2,-1.2899425E0,9.455533E-1,2.8933853E-1,6.039992E-1,-1.9299358E-1],"categories":[],"categories_nodes":[],"categories_segments":[],"categories_sizes":[],"default_left":[true,true,true,true,false,true,true,true,false,true,false,true,true,true,true,true,true,true,true,true,true,false,false,false,false,false,false,false,false,false,false,false,false,false,false,false,false],"id":29,"left_children":[1,3,5,7,-1,9,11,13,-1,15,-1,17,19,21,23,25,27,29,31,33,35,-1,-1,-1,-1,-1,-1,-1,-1,-1,-1,-1,-1,-1,-1,-1,-1],"loss_changes":[5.443033E0,2.531721E0,2.331566E0,2.5938678E0,0E0,1.6807722E0,2.1436176E0,4.0925956E0,0E0,2.212674E0,0E0,4.538168E0,8.4313345E-1,2.4090786E0,1.3918904E0,2.7726521E0,1.2295307E0,2.0721025E0,1.121104E0,4.0373802E-1,1.1687273E0,0E0,0E0,0E0,0E0,0E0,0E0,0E0,0E0,0E0,0E0,0E0,0E0,0E0,0E0,0E0,0E0],"parents":[2147483647,0,0,1,1,2,2,3,3,5,5,6,6,7,7,9,9,11,11,12,12,13,13,14,14,15,15,16,16,17,17,18,18,19,19,20,20],"right_children":[2,4,6,8,-1,10,12,14,-1,16,-1,18,20,22,24,26,28,30,32,34,36,-1,-1,-1,-1,-1,-1,-1,-1,-1,-1,-1,-1,-1,-1,-1,-1],"split_conditions":[5E-1,3.1715881E1,5E-1,3.1573673E1,-9.39882E-2,5.296776E1,4.7610558E1,5E-1,8.142416E-2,4.2850983E1,-9.351223E-2,4.416513E1,5E-1,5E-1,1.46741295E1,5E-1,4.8115623E1,5E-1,5E-1,5E-1,5.526571E1,-8.923344E-2,1.8882884E-2,-4.9234185E-2,2.1822043E-2,-2.2370217E-3,-1.02681674E-1,8.810032E-2,-1.3741376E-2,-2.0761108E-2,2.9464273E-2,-6.7716218E-3,-1.2899426E-1,9.455533E-2,2.8933853E-2,6.039992E-2,-1.9299358E-2],"split_indices":[3,10,6,10,0,10,10,2,0,10,0,10,11,5,10,12,10,7,4,12,10,0,0,0,0,0,0,0,0,0,0,0,0,0,0,0,0],"split_type":[0,0,0,0,0,0,0,0,0,0,0,0,0,0,0,0,0,0,0,0,0,0,0,0,0,0,0,0,0,0,0,0,0,0,0,0,0],"sum_hessian":[1.1407531E2,3.3154522E1,8.0920784E1,2.7646175E1,5.508347E0,2.0017809E1,6.090298E1,2.6375704E1,1.2704706E0,1.8381527E1,1.6362815E0,4.8329205E1,1.2573775E1,1.2373688E1,1.4002016E1,1.4658134E1,3.7233925E0,4.5396626E1,2.9325786E0,6.9475613E0,5.626214E0,1.0229464E1,2.1442246E0,2.5536706E0,1.1448345E1,1.2082976E1,2.5751576E0,2.2243123E0,1.4990802E0,9.811834E0,3.558479E1,1.1940482E0,1.7385304E0,4.3467317E0,2.6008296E0,2.5840225E0,3.0421915E0],"tree_param":{"num_deleted":"0","num_feature":"15","num_nodes":"37","size_leaf_vector":"0"}},{"base_weights":[-3.641002E-2,-4.6872297E-1,6.220447E-2,-8.815256E-1,-2.872108E-1,-2.9609978E-1,1.0589849E-1,5.107774E-1,-4.038124E-1,-8.552022E-1,3.924988E-3,-6.012117E-1,1.3947216E-1,-8.0236524E-1,-9.781089E-2,-5.784833E-1,3.7058514E-1,-1.5422868E0,2.789553E-1,1.7820837E-1,-4.3467075E-1,-8.977746E-1,-1.6012797E-1,1.8167134E-1,-5.131245E-1,1.282343E-2,-8.331681E-1,6.578411E-1,-6.617829E-2,8.385487E-1,1.4464204E-1,-7.700463E-1,-1.23434834E-1],"categories":[],"categories_nodes":[],"categories_segments":[],"categories_sizes":[],"default_left":[true,true,true,false,true,true,true,false,true,false,true,true,true,true,true,true,true,false,false,true,true,false,false,false,false,false,false,false,false,false,false,false,false],"id":30,"left_children":[1,3,5,-1,7,9,11,-1,13,-1,15,17,19,21,23,25,27,-1,-1,29,31,-1,-1,-1,-1,-1,-1,-1,-1,-1,-1,-1,-1],"loss_changes":[4.8382945E0,1.3255315E0,1.4831995E0,0E0,1.7059743E0,1.7383446E0,2.0636103E0,0E0,1.7047236E0,0E0,1.8643327E0,3.7171884E0,1.8661038E0,2.3685741E-1,1.1854554E0,5.1902235E-1,7.148836E-1,0E0,0E0,1.564379E0,4.6587908E-1,0E0,0E0,0E0,0E0,0E0,0E0,0E0,0E0,0E0,0E0,0E0,0E0],"parents":[2147483647,0,0,1,1,2,2,4,4,5,5,6,6,8,8,10,10,11,11,12,12,13,13,14,14,15,15,16,16,19,19,20,20],"right_children":[2,4,6,-1,8,10,12,-1,14,-1,16,18,20,22,24,26,28,-1,-1,30,32,-1,-1,-1,-1,-1,-1,-1,-1,-1,-1,-1,-1],"split_conditions":[5E-1,1.9652431E1,5E-1,-8.815256E-2,2.067038E1,5E-1,8.926012E0,5.1077742E-2,5E-1,-8.552022E-2,2.3037556E1,5E-1,5E-1,5.1819786E1,3.1829239E1,1.4329901E1,5E-1,-1.5422867E-1,2.789553E-2,1.0186918E1,5E-1,-8.977746E-2,-1.6012797E-2,1.8167134E-2,-5.1312454E-2,1.2823431E-3,-8.331681E-2,6.578411E-2,-6.617829E-3,8.385488E-2,1.4464204E-2,-7.7004634E-2,-1.2343484E-2],"split_indices":[8,10,9,0,10,11,10,0,0,0,10,13,14,10,10,10,0,0,0,10,5,0,0,0,0,0,0,0,0,0,0,0,0],"split_type":[0,0,0,0,0,0,0,0,0,0,0,0,0,0,0,0,0,0,0,0,0,0,0,0,0,0,0,0,0,0,0,0,0],"sum_hessian":[1.1180498E2,2.0069565E1,9.173541E1,4.95168E0,1.5117885E1,9.343034E0,8.239238E1,1.4964018E0,1.3621483E1,2.6165676E0,6.7264667E0,2.9683049E0,7.942408E1,5.211565E0,8.409918E0,2.3754916E0,4.3509746E0,1.0709639E0,1.897341E0,7.505021E1,4.373871E0,4.191064E0,1.0205009E0,5.3632965E0,3.0466218E0,1.0010302E0,1.3744615E0,2.3193703E0,2.0316045E0,2.470329E0,7.257988E1,1.3957304E0,2.9781404E0],"tree_param":{"num_deleted":"0","num_feature":"15","num_nodes":"33","size_leaf_vector":"0"}},{"base_weights":[-3.7068944E-2,-3.436603E-1,8.7157436E-2,-2.068737E-1,-9.160135E-1,-1.7576635E-1,1.7477295E-1,-2.8379777E-1,7.7080655E-1,-6.84836E-2,-8.9783883E-1,7.764093E-2,5.209278E-1,-6.654439E-1,5.1802646E-2,9.738775E-2,-6.5994143E-1,1.5947871E-1,-8.661433E-1,7.3914355E-1,1.8729971E-1,-8.580401E-1,1.7796971E-1,-4.5684323E-1,1.9212395E-1,-2.5636092E-1,3.997769E-1,1.8597063E-2,-9.6488017E-1,-1.1726939E-1,3.1675175E-1,-7.9852656E-2,-1.1663257E0,9.2383933E-1,2.6434898E-1,-2.0170431E-1,5.8495027E-1],"categories":[],"categories_nodes":[],"categories_segments":[],"categories_sizes":[],"default_left":[true,true,true,true,false,true,true,true,false,true,false,true,true,true,true,true,true,true,true,true,true,false,false,false,false,false,false,false,false,false,false,false,false,false,false,false,false],"id":31,"left_children":[1,3,5,7,-1,9,11,13,-1,15,-1,17,19,21,23,25,27,29,31,33,35,-1,-1,-1,-1,-1,-1,-1,-1,-1,-1,-1,-1,-1,-1,-1,-1],"loss_changes":[4.268672E0,2.3387399E0,1.8735709E0,2.2761068E0,0E0,1.5260757E0,1.9938761E0,3.376268E0,0E0,1.9209508E0,0E0,3.8781066E0,8.139982E-1,2.1475115E0,1.1448855E0,1.7767388E0,9.0221286E-1,2.0132985E0,8.555298E-1,4.1960287E-1,1.1254058E0,0E0,0E0,0E0,0E0,0E0,0E0,0E0,0E0,0E0,0E0,0E0,0E0,0E0,0E0,0E0,0E0],"parents":[2147483647,0,0,1,1,2,2,3,3,5,5,6,6,7,7,9,9,11,11,12,12,13,13,14,14,15,15,16,16,17,17,18,18,19,19,20,20],"right_children":[2,4,6,8,-1,10,12,14,-1,16,-1,18,20,22,24,26,28,30,32,34,36,-1,-1,-1,-1,-1,-1,-1,-1,-1,-1,-1,-1,-1,-1,-1,-1],"split_conditions":[5E-1,3.1715881E1,5E-1,3.1573673E1,-9.160135E-2,5.296776E1,4.7610558E1,5E-1,7.708066E-2,5E-1,-8.9783885E-2,4.416513E1,5E-1,5E-1,1.46741295E1,5E-1,5E-1,1.92653E1,5E-1,5E-1,5E-1,-8.580401E-2,1.779697E-2,-4.5684323E-2,1.9212395E-2,-2.5636092E-2,3.9977692E-2,1.8597062E-3,-9.648802E-2,-1.1726939E-2,3.1675175E-2,-7.985266E-3,-1.1663257E-1,9.2383936E-2,2.6434898E-2,-2.0170432E-2,5.8495026E-2],"split_indices":[3,10,6,10,0,10,10,2,0,12,0,10,11,5,10,4,0,10,4,12,13,0,0,0,0,0,0,0,0,0,0,0,0,0,0,0,0],"split_type":[0,0,0,0,0,0,0,0,0,0,0,0,0,0,0,0,0,0,0,0,0,0,0,0,0,0,0,0,0,0,0,0,0,0,0,0,0],"sum_hessian":[1.1029122E2,3.1293154E1,7.899807E1,2.6355824E1,4.9373307E0,1.9493692E1,5.9504375E1,2.5091354E1,1.2644695E0,1.7925268E1,1.5684246E0,4.742194E1,1.2082436E1,1.1280397E1,1.3810957E1,1.4651634E1,3.273634E0,4.44027E1,3.0192416E0,6.569837E0,5.512599E0,9.169231E0,2.1111655E0,2.4985077E0,1.1312449E1,6.8225355E0,7.829099E0,1.3061812E0,1.9674526E0,1.6182049E1,2.822065E1,1.1839762E0,1.8352653E0,4.0490026E0,2.5208344E0,3.0356834E0,2.4769154E0],"tree_param":{"num_deleted":"0","num_feature":"15","num_nodes":"37","size_leaf_vector":"0"}},{"base_weights":[-3.6195334E-2,-4.31877E-1,4.9920756E-2,-8.5843575E-1,-2.5300896E-1,-1.0698846E-1,1.3890064E-1,4.795946E-1,-3.641554E-1,-8.095753E-1,-1.0003401E-2,3.3491793E-1,6.0815275E-2,-7.7328587E-1,-7.276623E-2,1.8926683E-1,-1.8858121E-1,1.06325805E-1,8.291325E-1,-1.0982827E0,1.2150114E-1,-8.557706E-1,-2.4287516E-1,1.8269792E-1,-4.7748098E-1,-7.480923E-1,3.4599224E-1,-9.5557475E-1,5.649211E-3,-3.1366563E-1,5.9433126E-1,5.1646006E-1,3.6073066E-2],"categories":[],"categories_nodes":[],"categories_segments":[],"categories_sizes":[],"default_left":[true,true,true,false,true,true,true,false,true,false,true,true,true,true,true,true,true,true,false,false,true,false,false,false,false,false,false,false,false,false,false,false,false],"id":32,"left_children":[1,3,5,-1,7,9,11,-1,13,-1,15,17,19,21,23,25,27,29,-1,-1,31,-1,-1,-1,-1,-1,-1,-1,-1,-1,-1,-1,-1],"loss_changes":[3.7439325E0,1.2804885E0,1.2799721E0,0E0,1.4162338E0,2.264716E0,8.713292E-1,0E0,1.5898433E0,0E0,1.1146919E0,1.7617129E0,3.1498935E0,3.8892984E-2,1.0351317E0,2.4374218E0,2.4622612E0,2.7162142E0,0E0,0E0,1.3866724E0,0E0,0E0,0E0,0E0,0E0,0E0,0E0,0E0,0E0,0E0,0E0,0E0],"parents":[2147483647,0,0,1,1,2,2,4,4,5,5,6,6,8,8,10,10,11,11,12,12,13,13,14,14,15,15,16,16,17,17,20,20],"right_children":[2,4,6,-1,8,10,12,-1,14,-1,16,18,20,22,24,26,28,30,-1,-1,32,-1,-1,-1,-1,-1,-1,-1,-1,-1,-1,-1,-1],"split_conditions":[5E-1,1.9652431E1,5E-1,-8.584358E-2,2.067038E1,1.6744762E1,1.7345705E1,4.7959458E-2,5E-1,-8.095753E-2,5E-1,1.5657398E1,1.7991821E1,4.9642334E1,3.1829239E1,5E-1,2.2234234E1,5E-1,8.291325E-2,-1.0982827E-1,5E-1,-8.557706E-2,-2.4287516E-2,1.8269792E-2,-4.77481E-2,-7.480923E-2,3.4599226E-2,-9.555747E-2,5.649211E-4,-3.1366564E-2,5.943313E-2,5.1646005E-2,3.6073066E-3],"split_indices":[8,10,5,0,10,10,10,0,0,0,11,10,10,10,10,9,10,13,0,0,0,0,0,0,0,0,0,0,0,0,0,0,0],"split_type":[0,0,0,0,0,0,0,0,0,0,0,0,0,0,0,0,0,0,0,0,0,0,0,0,0,0,0,0,0,0,0,0,0],"sum_hessian":[1.08242E2,1.8629429E1,8.9612564E1,4.3814406E0,1.4247988E1,3.2354862E1,5.7257706E1,1.4401953E0,1.2807793E1,3.0333078E0,2.9321552E1,1.53743725E1,4.1883335E1,4.6396346E0,8.168158E0,1.3829607E1,1.5491946E1,1.1342976E1,4.0313964E0,1.2331116E0,4.0650223E1,3.484366E0,1.1552687E0,5.343689E0,2.8244686E0,1.4405507E0,1.2389056E1,2.338334E0,1.3153612E1,6.2883186E0,5.054657E0,6.3316417E0,3.431858E1],"tree_param":{"num_deleted":"0","num_feature":"15","num_nodes":"33","size_leaf_vector":"0"}},{"base_weights":[-3.6298297E-2,-4.122522E-1,4.378109E-2,-8.4233475E-1,-2.3921858E-1,-1.420355E-1,1.1225411E-1,4.5559275E-1,-3.457442E-1,1.7072508E-1,-3.8650122E-1,1.5637337E-1,-5.2131945E-1,-7.5148064E-1,-6.907196E-2,-5.0326633E-1,3.6157373E-1,1.6901223E-1,-1.1087666E0,2.1025594E-1,-2.8363138E-1,-3.2167207E-2,-8.061569E-1,-8.371576E-1,-2.3125394E-1,1.6635159E-1,-4.494498E-1,7.668255E-1,-9.875448E-2,-4.7235936E-1,4.2838433E-1,-2.9916298E-1,-1.2354215E0,1.3170697E-1,9.455616E-1,-1.3789238E0,1.3537866E-1],"categories":[],"categories_nodes":[],"categories_segments":[],"categories_sizes":[],"default_left":[true,true,true,false,true,true,true,false,true,true,true,true,true,true,true,false,true,true,true,true,true,false,false,false,false,false,false,false,false,false,false,false,false,false,false,false,false],"id":33,"left_children":[1,3,5,-1,7,9,11,-1,13,15,17,19,21,23,25,-1,27,29,31,33,35,-1,-1,-1,-1,-1,-1,-1,-1,-1,-1,-1,-1,-1,-1,-1,-1],"loss_changes":[3.2592003E0,1.2125013E0,1.1566854E0,0E0,1.2637498E0,1.9456205E0,1.9284544E0,0E0,1.4666594E0,1.6584973E0,5.846569E0,1.542395E0,6.0554254E-1,4.6349287E-2,8.936395E-1,0E0,1.8531044E0,1.672983E0,2.727456E-1,3.1267583E0,3.5134654E0,0E0,0E0,0E0,0E0,0E0,0E0,0E0,0E0,0E0,0E0,0E0,0E0,0E0,0E0,0E0,0E0],"parents":[2147483647,0,0,1,1,2,2,4,4,5,5,6,6,8,8,9,9,10,10,11,11,12,12,13,13,14,14,16,16,17,17,18,18,19,19,20,20],"right_children":[2,4,6,-1,8,10,12,-1,14,16,18,20,22,24,26,-1,28,30,32,34,36,-1,-1,-1,-1,-1,-1,-1,-1,-1,-1,-1,-1,-1,-1,-1,-1],"split_conditions":[5E-1,1.9652431E1,5E-1,-8.423348E-2,2.067038E1,5E-1,5E-1,4.5559276E-2,5E-1,1.9525845E1,5E-1,5.526571E1,2.3991257E1,4.9642334E1,3.1829239E1,-5.0326634E-2,2.3639874E1,5E-1,1.3014183E1,4.8647144E1,5.777544E1,-3.216721E-3,-8.061569E-2,-8.371576E-2,-2.3125393E-2,1.6635159E-2,-4.4944983E-2,7.668255E-2,-9.875448E-3,-4.7235936E-2,4.2838436E-2,-2.99163E-2,-1.2354215E-1,1.3170697E-2,9.455616E-2,-1.3789238E-1,1.3537866E-2],"split_indices":[8,10,4,0,10,0,14,0,0,10,11,10,10,10,10,0,10,7,10,10,10,0,0,0,0,0,0,0,0,0,0,0,0,0,0,0,0],"split_type":[0,0,0,0,0,0,0,0,0,0,0,0,0,0,0,0,0,0,0,0,0,0,0,0,0,0,0,0,0,0,0,0,0,0,0,0,0],"sum_hessian":[1.06657425E2,1.8000635E1,8.865679E1,4.054631E0,1.3946004E1,2.3583487E1,6.50733E1,1.418304E0,1.25277E1,1.0478857E1,1.31046295E1,6.1541046E1,3.532258E0,4.3833823E0,8.144318E0,1.9511793E0,8.5276785E0,7.840381E0,5.264249E0,5.529217E1,6.2488766E0,1.7094852E0,1.8227727E0,3.2404847E0,1.1428974E0,5.3782673E0,2.7660508E0,4.1810503E0,4.3466277E0,2.0212064E0,5.819175E0,1.1669439E0,4.097305E0,5.1020977E1,4.271193E0,1.0951763E0,5.1537004E0],"tree_param":{"num_deleted":"0","num_feature":"15","num_nodes":"37","size_leaf_vector":"0"}},{"base_weights":[-3.7180874E-2,-3.0085608E-1,6.5666765E-2,-1.6882679E-1,-8.859281E-1,-1.7354336E-1,1.4458281E-1,-2.4434777E-1,7.251653E-1,-6.9747366E-2,-8.557394E-1,5.3157732E-2,4.8140842E-1,-6.0708874E-1,4.98158E-2,8.895326E-2,-6.2852687E-1,1.2989926E-1,-7.851543E-1,8.6519086E-1,2.677344E-1,-8.177049E-1,2.0719273E-1,-4.1676214E-1,1.7652108E-1,-2.2649299E-1,3.6139575E-1,-8.8783884E-1,7.0286706E-2,-3.831484E-1,2.0714714E-1,-6.583382E-2,-1.0532551E0,6.410999E-1,-1.9914377E-2],"categories":[],"categories_nodes":[],"categories_segments":[],"categories_sizes":[],"default_left":[true,true,true,true,